var netObj2 = { "layers": [{ "out_depth": 3, "out_sx": 32, "out_sy": 32, "layer_type": "input" }, { "sx": 5, "sy": 5, "stride": 1, "in_depth": 3, "out_depth": 16, "out_sx": 32, "out_sy": 32, "layer_type": "conv", "l1_decay_mul": 0, "l2_decay_mul": 1, "pad": 2, "filters": [{ "sx": 5, "sy": 5, "depth": 3, "w": { "0": 0.4954465870160038, "1": -0.2830633068000306, "2": -0.5316961157117347, "3": -0.14413259089722327, "4": -0.4572750083783193, "5": -0.3683356298946206, "6": -0.2656536398675239, "7": -0.2517710331708674, "8": -0.23382139515832742, "9": 0.19103371065099398, "10": -0.05766232635994291, "11": 0.6234158601552382, "12": 0.12528296792775817, "13": 0.43338410499935026, "14": 0.5688524219723858, "15": 0.06870048518999021, "16": -0.07612844852866749, "17": 0.05661601376167154, "18": -0.34236865173234166, "19": -0.18778296178530227, "20": 0.2535063701272314, "21": -0.27475562231925216, "22": 0.1107527059585858, "23": 0.289051135093413, "24": -0.37992301711268056, "25": 0.23536258490487655, "26": 0.39630650582353394, "27": -0.015464616508139578, "28": -0.05649212579286929, "29": 0.3295207977998632, "30": -0.06008746262596727, "31": -0.5175079342504454, "32": 0.08294792111369786, "33": 0.19130155082920736, "34": -0.014435796822085538, "35": 0.46152231301142577, "36": 0.1363934197952161, "37": -0.002301476922902312, "38": 0.8319618030262087, "39": -0.4030531353875147, "40": 0.13465354049883405, "41": 0.41572136753612987, "42": -0.4487088734333946, "43": -0.2308410531039031, "44": 0.06056624782294009, "45": 0.1974457739677916, "46": -0.3216089715486814, "47": 0.054105513683236045, "48": 0.2790677949870316, "49": -0.29719211348842867, "50": 0.22804542976001896, "51": 0.4001870437143063, "52": 0.05003652850765071, "53": 0.8221132910737359, "54": 0.33457265879352094, "55": 0.12385998597180911, "56": 0.30049906036620627, "57": -0.026362124898895337, "58": -0.14058128293833327, "59": -0.161824493712031, "60": 0.1871971055453482, "61": -0.2559287157395187, "62": 0.16234348157307094, "63": -0.1837157953921883, "64": -0.4720091775915193, "65": -0.0869188108677583, "66": -0.12568353448623443, "67": -0.16473390029688403, "68": 0.06004837147248499, "69": 0.16757626184976465, "70": 0.027316689095010675, "71": -0.0658710493582823, "72": 0.060100629273232904, "73": -0.16818527562571767, "74": -0.07342692533328717 } }, { "sx": 5, "sy": 5, "depth": 3, "w": { "0": 0.02525573696595034, "1": 0.04354688789055569, "2": -0.17091633256574132, "3": -0.20578237493151302, "4": 0.24727087880948062, "5": -0.018012718712612015, "6": -0.3734803315116726, "7": -0.22761492402230898, "8": 0.28504253930751516, "9": 0.06248205290510811, "10": 0.006197238955995758, "11": 0.03997086122265851, "12": 0.5018004692709512, "13": 0.007715223567766369, "14": -0.25698008060907995, "15": -0.40760672054306757, "16": 0.29891211501766835, "17": -0.24408270496966494, "18": -0.5475179786957799, "19": 0.184348629129077, "20": 0.44441680575600717, "21": -0.14120679360409924, "22": 0.18604553160192577, "23": 0.6567182573224725, "24": 0.34578706348912197, "25": 0.17269075032741782, "26": 0.06987888885668274, "27": 0.4582965072720566, "28": -0.3684516042180628, "29": -0.9650518731081141, "30": -0.5426816361875283, "31": 0.3340611692217636, "32": 0.26815861620004317, "33": -0.4557950168224369, "34": 0.4582427155898099, "35": 0.7674762903264669, "36": 0.14391558687049122, "37": 0.10536026102656536, "38": 0.5813600372361795, "39": 0.257547491908386, "40": -0.585441618664602, "41": -0.6434366719861675, "42": 0.6063698957435136, "43": -0.27354701196202863, "44": -1.0550180157200746, "45": -0.5915334929837279, "46": 0.41183661145189066, "47": 0.6803694602043459, "48": -0.16339688650469197, "49": 0.30655322265562285, "50": 0.772935098516688, "51": -0.15089778194677514, "52": -0.30488924333646145, "53": -0.08377118333983379, "54": 0.1347679974600342, "55": -0.48490412951516587, "56": -0.6504270331490254, "57": 0.8622052417289697, "58": -0.16390168903002514, "59": -0.6527142071941128, "60": -0.49505548003952615, "61": 0.5077485311195777, "62": 0.6094235497376875, "63": -0.4310954878023897, "64": 0.11065467505228999, "65": 0.2794928855230588, "66": 0.1011215157429176, "67": -0.5176110590165782, "68": -0.21447386773645938, "69": 0.398501082937153, "70": 0.04221021476279567, "71": -0.2677079355904393, "72": 0.4097730010244567, "73": -0.133792480780017, "74": -0.30915652344551586 } }, { "sx": 5, "sy": 5, "depth": 3, "w": { "0": -0.03772610630700901, "1": -0.03765100974042456, "2": 0.22447797548409457, "3": 0.2373179460159061, "4": -0.18208235937014872, "5": 0.034832786232558116, "6": -0.07209163405727367, "7": -0.13492027860854772, "8": 0.3365289160598517, "9": -0.31167813973978087, "10": -0.0018813453283383506, "11": 0.5277406233897074, "12": -0.569152738449723, "13": 0.2775450629913698, "14": 0.6217787316512965, "15": 0.7665616937315014, "16": -0.6530020067309867, "17": -0.5281982074049827, "18": 1.1220823305266419, "19": -0.8161391796371726, "20": -0.7519421474429551, "21": 0.9566828629100769, "22": -0.7278570351528797, "23": -0.7372906733443578, "24": 0.4815882763469668, "25": -0.407813884860955, "26": -0.3325894123661762, "27": 0.1332243364054503, "28": -0.29369136695856946, "29": -0.18406870845057954, "30": 0.5218538104042592, "31": -0.42227985052677797, "32": -0.19574254368525543, "33": 0.8310094766305516, "34": -0.7468860590811108, "35": -0.33219274327928927, "36": 0.9168318542003433, "37": -0.7876649327409874, "38": -0.4550577226835605, "39": 0.5894389130510306, "40": -0.38616546391555157, "41": -0.2673385682043884, "42": 0.152559229391294, "43": -0.30032417282316837, "44": 0.10411030220918135, "45": -0.12601132898352552, "46": -0.2549489615308265, "47": 0.06323510773838874, "48": 0.05015655938898048, "49": -0.2563368609661592, "50": 0.15417040451930564, "51": 0.0003066298312362526, "52": -0.1620030606208767, "53": 0.19290664216617445, "54": 0.03897150286289258, "55": -0.2154732032988862, "56": 0.26000004431888746, "57": -0.31580580523533236, "58": 0.025883148484616522, "59": 0.21121553152103942, "60": -0.5917605515579185, "61": 0.27554843672266915, "62": 0.4283286510593178, "63": -0.6420156908373537, "64": 0.4408882323661641, "65": 0.6138078602361101, "66": -0.697982730674103, "67": 0.3019490077858476, "68": 0.6493765224901684, "69": -0.6009452991818451, "70": 0.22889463613109062, "71": 0.49849020675417094, "72": -0.5756705499600338, "73": 0.022407152857260904, "74": 0.4541534760211184 } }, { "sx": 5, "sy": 5, "depth": 3, "w": { "0": 0.7013466921047739, "1": -0.2591943692520518, "2": 0.04820667553958144, "3": -0.2495595999631783, "4": -0.7931010806857888, "5": -0.1985513265788838, "6": -0.2764615203478641, "7": 0.030732248047891125, "8": -0.07632133942550488, "9": 0.11341959137200691, "10": 0.35365441923700375, "11": 0.12120220199495971, "12": -0.16207892244938954, "13": 0.350986803836492, "14": 0.0957535347983845, "15": -0.06598385345256333, "16": -1.0827313245040997, "17": -1.0322514602044317, "18": 0.2812987586601343, "19": -0.47397022669679245, "20": -0.08176578910174695, "21": 0.5475854670175525, "22": 1.1509829663130593, "23": 1.158037496350981, "24": -0.3557271082991596, "25": 0.09114706221376703, "26": -0.1100419945816432, "27": -0.24608153300083746, "28": 0.2356895933812886, "29": -0.24405381231320916, "30": -0.21170194255005814, "31": -1.3566897236217756, "32": -0.9327051926974003, "33": 0.6845024558301557, "34": 0.15126652418418932, "35": 0.40724996090752247, "36": 0.4363610744086892, "37": 0.7659531210089479, "38": 0.7318820018109505, "39": -0.33698912775717427, "40": -0.16896416557637725, "41": -0.09492370960186279, "42": -0.1417659319785011, "43": 0.2293501004081855, "44": -0.35868477595375003, "45": 0.24308901476496628, "46": -0.39275144452288896, "47": -0.19652878008776634, "48": 0.27286868781912876, "49": -0.1414828747729962, "50": 0.1855497925169872, "51": -0.19926369725340018, "52": -0.012355270006235557, "53": 0.17164666130198872, "54": -0.010926417114846765, "55": 0.33813509059860414, "56": 0.2656014171007921, "57": -0.3756303484545658, "58": 0.2057935253351428, "59": -0.2861735637095565, "60": 0.24946514146127746, "61": 0.032200240976409965, "62": -0.05811916151159144, "63": -0.24618112052852242, "64": -0.07101625923872179, "65": 0.16948814508886653, "66": -0.556673477655533, "67": 0.2608335560836521, "68": 0.21402425305604278, "69": -0.07977706676830244, "70": 0.5132246256624766, "71": 0.009879586606777473, "72": -0.17684530090983264, "73": 0.21515885549210875, "74": -0.07848890081369386 } }, { "sx": 5, "sy": 5, "depth": 3, "w": { "0": -0.4314756888422845, "1": 0.32121156700395714, "2": -0.14475991918413889, "3": -0.34445303814100936, "4": 0.9296654352096574, "5": -0.6192808024575731, "6": -0.7831716300613583, "7": 0.6924913086990224, "8": -1.2599113662347987, "9": -0.389504763939601, "10": 0.6664652858457533, "11": -0.46452141766063515, "12": 0.2384650444192615, "13": -0.11403220450478774, "14": 0.49272434817705785, "15": -0.18578577556441617, "16": 0.19057747804586636, "17": 0.009836678902989369, "18": -0.05192295630673802, "19": 1.2652353758360175, "20": -0.2883731726424222, "21": -0.0018649732241236524, "22": 1.5750209548657945, "23": -0.3286669206417043, "24": -0.4511442928301193, "25": 0.5673384983654186, "26": -0.70901957263291, "27": -0.26966870649947194, "28": -0.0733400681367188, "29": 0.0441950468123848, "30": -0.09377361239727046, "31": 0.17426672985671612, "32": 0.29230500970048356, "33": -0.9916108079798431, "34": 0.09433860620126734, "35": -1.3053355691804025, "36": 0.12035056206324457, "37": 1.1293604988859698, "38": -0.39729816411846397, "39": -0.06013334148344517, "40": 0.5686522831407956, "41": -0.43263304249501483, "42": -0.10666030258266715, "43": -0.007740814209949304, "44": 0.00020482053976769276, "45": 0.22851251256635763, "46": -0.06763248517319574, "47": 0.7457163257322292, "48": -0.1765545590325655, "49": -0.11985955923408667, "50": 0.05992186499548285, "51": -0.14038614422521017, "52": 0.3413266494540639, "53": 0.029836208174667513, "54": -0.5739352919707138, "55": 0.07021697398074686, "56": -0.3175851878410776, "57": 0.20982458157619424, "58": -0.13121681983816003, "59": 0.19518996168909938, "60": 0.28360730660372124, "61": -0.8450349583986335, "62": 0.249401931346674, "63": 0.298957699601082, "64": -0.19837994697289393, "65": 0.3383200139288248, "66": -0.18374960249925096, "67": -0.3976699402994115, "68": 0.2769951865489885, "69": 0.05959416575540004, "70": -0.06592018148933325, "71": 0.008008416385141146, "72": 0.21372547720389004, "73": -0.24873692724573307, "74": 0.4083717407946647 } }, { "sx": 5, "sy": 5, "depth": 3, "w": { "0": -0.18173840278235467, "1": 0.23495090588838002, "2": 0.016626850161839478, "3": 0.20484302720233566, "4": -0.34169597246940797, "5": 0.20363133989286114, "6": 0.11245707372747825, "7": -0.45214754888512704, "8": 0.12637556371613015, "9": 0.35224995814769383, "10": -0.019702765675471537, "11": 0.051621828379057974, "12": -0.19607433552423623, "13": 0.10199378848549523, "14": 0.015150113458629684, "15": -0.18179174633697273, "16": 0.13099879432949796, "17": -0.2016668530435743, "18": 0.2205701053257796, "19": -0.20357549738990666, "20": 0.4409348567912753, "21": -0.425960109713427, "22": -0.7302691943383743, "23": -0.2361843629468502, "24": 0.5641559993847288, "25": 0.3163158263437349, "26": 0.34677357918003343, "27": -0.45262914089859185, "28": -0.1729819462934163, "29": -0.406280567897379, "30": -0.22632533909705832, "31": 0.49543986262441614, "32": 0.0480078339402294, "33": 0.23310899648312244, "34": 0.2600551012951151, "35": 0.34258581127361554, "36": -0.7706745840286396, "37": -1.392641083756155, "38": -0.6799046844596368, "39": 1.2407633370210556, "40": 1.14363626734472, "41": 1.145202063219177, "42": -0.4738776681307543, "43": -0.03191846941528727, "44": -0.6204574658097627, "45": 0.21875620584549063, "46": 0.3963620564085893, "47": -0.12556673234532195, "48": 0.035720819064844915, "49": 0.041527411236771346, "50": 0.46613050610389456, "51": -0.9063826533396808, "52": -1.4474004597086347, "53": -0.8986867734098212, "54": 1.5927759735115938, "55": 1.611111730869884, "56": 1.020509657621391, "57": -0.8610462533407183, "58": -0.3651497532846368, "59": -0.9064911899918554, "60": -0.29628368835789215, "61": 0.34863403411386196, "62": 0.22344965898085306, "63": 0.12408620157562066, "64": -0.09412018553041826, "65": 0.10852045744266996, "66": -0.5270286180684943, "67": -1.0091892365494586, "68": -0.5049286676827649, "69": 0.9822555423845368, "70": 0.9725746146241036, "71": 0.7855139051070017, "72": -0.2723859957634302, "73": -0.22938944135728567, "74": -0.5399544529093007 } }, { "sx": 5, "sy": 5, "depth": 3, "w": { "0": 0.41430710530475895, "1": 0.38987096324604037, "2": -0.15975721781241567, "3": 0.394236852473919, "4": 0.3059279588760443, "5": 0.13602309347479724, "6": 0.6464481443101278, "7": 0.604332733171992, "8": 0.3913162436199289, "9": 0.2730569869095699, "10": -0.12518931306106662, "11": 0.03704337642616609, "12": 0.44009506177976315, "13": -0.01913509416994706, "14": -0.22677300970272773, "15": 0.2257295788106812, "16": -0.14711100219953638, "17": -0.15803492211237863, "18": -0.15706722735183312, "19": -0.06036730972768673, "20": 0.04029095988327373, "21": -0.21479738139069876, "22": 0.01836270464762014, "23": 0.315906449231085, "24": -0.31760315735063677, "25": -0.0342125027514671, "26": 0.3342383387360046, "27": 0.20087687484165764, "28": 0.37276578235975705, "29": 0.2794036662496902, "30": -0.20730321032754095, "31": -0.510728612478176, "32": -0.47012627874685037, "33": -0.4858612721976981, "34": -0.29567391614243066, "35": -0.38996185271857237, "36": -0.28535348682166345, "37": 0.10351729591241819, "38": 0.245569269166567, "39": -1.0121110028074667, "40": -0.5486392519999189, "41": -0.02952079102731887, "42": -0.7273619559860821, "43": -0.29515964652856846, "44": 0.028153837460109868, "45": 0.2631445308987968, "46": 0.018042502428854072, "47": -0.1740326738709003, "48": -0.12739740420974074, "49": 0.012668877871236967, "50": 0.014451549119672806, "51": -0.06332963668686244, "52": 0.3791752414698968, "53": 0.5171291625449886, "54": -0.2867020599909159, "55": 0.2088978559926691, "56": 0.3364790741918366, "57": -0.09070426735716483, "58": -0.11906437496523466, "59": 0.01262140522199532, "60": 0.08369050803660572, "61": 0.036569364864425774, "62": -0.06336894486081135, "63": -0.044850096798177114, "64": -0.29686721613646344, "65": -0.25879803607054835, "66": 0.07010238725270344, "67": 0.12410512479168605, "68": 0.2406844183017576, "69": -0.20151952388702976, "70": -0.05844054607520173, "71": 0.11682365049732417, "72": -0.29606314357943736, "73": 0.1348668080610814, "74": 0.11092560265216153 } }, { "sx": 5, "sy": 5, "depth": 3, "w": { "0": 0.06335372984744843, "1": 0.014076553361336997, "2": 0.05173946694197814, "3": 0.007379340950591643, "4": 0.020756519966045703, "5": -0.07547652986667297, "6": 0.7343685032633087, "7": 0.47666626496885095, "8": 0.36776573114847294, "9": -0.3304731109653479, "10": -0.004575843891371532, "11": -0.4996159515746926, "12": -0.6976342500633611, "13": 0.47705537719324503, "14": 0.09700098569902182, "15": -0.23895833955094425, "16": -0.39500845924857425, "17": -0.27907520145563036, "18": -0.5002376263855195, "19": -0.9578555535694775, "20": -0.2700319977908732, "21": 0.06767066820410066, "22": -0.11383412494162558, "23": 0.1994463321958825, "24": 1.4635238916815236, "25": 1.4717194478668532, "26": 1.3714913423475805, "27": -0.6147849771836863, "28": -0.46913666039454727, "29": -0.7679922821213203, "30": 0.546184492273937, "31": 0.3500519358264175, "32": 0.21779086435746492, "33": 0.11685759792935184, "34": -0.025661772175784095, "35": 0.18279454718430307, "36": -1.9564555188353288, "37": -2.167327254610988, "38": -1.4495136703236546, "39": 0.3499335128226638, "40": 0.07909680997020904, "41": 0.34972601067622683, "42": 0.8763747731314465, "43": 0.7781279299336205, "44": 0.6379563432319983, "45": -0.04909763299410809, "46": -0.04448179054647589, "47": -0.42836467889680346, "48": 1.074421504905657, "49": 1.0069332951629872, "50": 0.8162020112862787, "51": 0.1630971287914218, "52": 0.14264159395182793, "53": 0.20903597502854643, "54": -1.2121360631183522, "55": -1.2962213007169445, "56": -0.8837241590005659, "57": 0.21590637343642813, "58": -0.05826905825662712, "59": 0.29017543257311085, "60": -0.23594498344374662, "61": 0.17835929320294186, "62": 0.1154000323225567, "63": -0.14530071726571941, "64": -0.2835196477051988, "65": -0.5784861355959132, "66": 0.7358469336010376, "67": 0.7106394254804035, "68": 0.46021335538450164, "69": -0.12236683172114907, "70": -0.4365539391827043, "71": -0.06840245478691467, "72": 0.13450732541813304, "73": -0.29527099134653, "74": -0.029861502560309394 } }, { "sx": 5, "sy": 5, "depth": 3, "w": { "0": -0.14861576722031752, "1": -0.04799234382351403, "2": -0.44833730940298167, "3": -0.44148220305885866, "4": -0.2140995716263124, "5": -0.49020579039210865, "6": -0.07674903077757694, "7": -0.028274797495298026, "8": -0.11170007866785069, "9": 0.1371300313562484, "10": 0.23219518382890303, "11": -0.02480063886616123, "12": 0.15735108800357642, "13": 0.13550460996539754, "14": -0.048034048944066474, "15": -0.26021150015859346, "16": -0.00998363733823015, "17": -0.3204728767585088, "18": -0.13061656999362517, "19": -0.1851287139522599, "20": -0.5467575682401209, "21": -0.1515855310380343, "22": -0.18750186948937023, "23": -0.20012045998658254, "24": 0.21070364087420657, "25": 0.10189643362056419, "26": 0.24878297970283228, "27": 0.20405971220216196, "28": 0.20578576515607724, "29": 0.14317815424344732, "30": 0.08871451269248641, "31": 0.08094094875623772, "32": 0.14519073605569627, "33": 0.3249127854944866, "34": 0.2599928349448511, "35": 0.18648469604325718, "36": -0.0037072386959538534, "37": -0.1620654988829551, "38": -0.16066613982226857, "39": -0.1549955566734314, "40": -0.5024678073954454, "41": -0.0038785217723357104, "42": -0.010347535679558427, "43": -0.012434512375006224, "44": 0.2480759889079403, "45": 0.2938043908417078, "46": 0.21981505845770416, "47": 0.2645354699950733, "48": 0.2212699087136884, "49": 0.2818005798844271, "50": 0.6010724156326197, "51": 0.3701080682309583, "52": 0.19121949054721585, "53": 0.4653656630943091, "54": -0.3193931971127071, "55": -0.49332840814045625, "56": -0.17624834929898564, "57": -0.4712713036378783, "58": -0.5802690613526621, "59": -0.17249084423608643, "60": 0.047997285790800884, "61": 0.15563423616221847, "62": 0.2546681617861115, "63": -0.06725728488962739, "64": -0.025116906528959742, "65": 0.32656800903455346, "66": -0.3909960198230115, "67": -0.310078456398426, "68": 0.19896654826106952, "69": -0.4861366418522266, "70": -0.47826003505411674, "71": 0.42675238066142906, "72": -0.3116721977741167, "73": -0.26667947391724633, "74": 0.5927947013945717 } }, { "sx": 5, "sy": 5, "depth": 3, "w": { "0": 0.09055252704106585, "1": 0.34940614821973326, "2": -0.08891472385034735, "3": 0.3098540545659612, "4": 0.40425144348908865, "5": 0.08223334806633703, "6": 0.11100802687349329, "7": 0.09694003051050207, "8": -0.10646070284958845, "9": -0.2917404063778582, "10": -0.4304926781350662, "11": -0.08119128566536156, "12": -0.1479567899476964, "13": -0.15372357145888652, "14": 0.053319692506825916, "15": 0.04918350433975412, "16": 0.018107299093174954, "17": -0.23844927311078457, "18": 0.08739653671582868, "19": 0.29431933040605235, "20": -0.03768427626472652, "21": 0.35378123430673636, "22": 0.2458009935007047, "23": 0.24021191400901357, "24": 0.0037432594262737243, "25": -0.15662719868813632, "26": -0.1164699995293857, "27": -0.31201847459760285, "28": -0.4565240654050557, "29": 0.17832562083162684, "30": 0.20178886171856295, "31": 0.08645872363229105, "32": -0.47787735634564027, "33": 0.1298806189743149, "34": -0.028495105341666407, "35": -0.13887331524140487, "36": 0.22471187988735486, "37": 0.16511793793223303, "38": 0.2717405241059988, "39": -0.06779714334521349, "40": -0.154528292762592, "41": 0.33399569478415614, "42": -0.47439863318492487, "43": -0.5057477586314802, "44": 0.26449213633476953, "45": 0.15968590117587386, "46": 0.20172206817564167, "47": -0.45414782676141013, "48": 0.22819940844740516, "49": 0.11362273804400563, "50": -0.3366100914165334, "51": 0.2371965745221829, "52": 0.10251279532190882, "53": -0.08596895241666767, "54": 0.013690197614383495, "55": 0.11181737574734314, "56": 0.5193558162832849, "57": -0.7292145271447241, "58": -0.3731077043650237, "59": 0.325521876174119, "60": 0.15302114708328968, "61": 0.12040227944906963, "62": -0.4737359610829435, "63": 0.11339676305774232, "64": 0.05568791404724051, "65": -0.34704335969461564, "66": 0.2911947556203307, "67": 0.0660212104062628, "68": -0.0986147803758055, "69": -0.003073381725845205, "70": 0.180481053569292, "71": 0.2206704650969272, "72": -0.5915862563126139, "73": -0.13691663349758107, "74": 0.553373932766779 } }, { "sx": 5, "sy": 5, "depth": 3, "w": { "0": -0.06844751823664486, "1": 0.07031445315329173, "2": -0.4044756610839759, "3": -0.2265977408092912, "4": 0.01889813345432138, "5": -0.34750856177681755, "6": -0.02537710126905637, "7": 0.11814045139929438, "8": -0.27770324389623235, "9": 0.8104612266781502, "10": -0.06261072885854777, "11": -0.44735814631652165, "12": 0.5669365093632721, "13": -0.0010812695172628135, "14": -0.6079200732899163, "15": -0.2077099301993376, "16": 0.09552527950997199, "17": 0.33264302057700157, "18": -0.3013737674659548, "19": 0.46012390939068626, "20": 0.7176757272721861, "21": -0.13198236353927822, "22": -0.13731536299437064, "23": 0.25036146780784063, "24": 0.2738221198094439, "25": 0.13304320133363895, "26": 0.1887503738938272, "27": 0.3015501709019454, "28": 0.058123356311305274, "29": -0.4918602510870942, "30": -0.5838259343000818, "31": 0.12078283841343221, "32": 0.22759112759560904, "33": -0.6551225577294965, "34": 0.10297066002857669, "35": 0.3471725154685841, "36": -0.9612505109816708, "37": 0.04846924540363654, "38": 0.5144253784770495, "39": -0.18172217882297195, "40": 0.18405257947494466, "41": 0.08861834981046325, "42": 0.37876638849782435, "43": 0.044340649274791276, "44": -0.2881972798957481, "45": -0.4855596419645053, "46": 0.1106680051180712, "47": -0.03984454749465037, "48": -0.594485930230377, "49": 0.0559634978663783, "50": 0.7099480354478759, "51": -0.7226748676256382, "52": -0.00014552907355062036, "53": 0.29533906948625693, "54": -0.27725314195314543, "55": 0.024237729619435173, "56": 0.253629887218493, "57": 0.1923173437779248, "58": 0.21787111232397013, "59": -0.2431957016767312, "60": 0.16578104947732378, "61": -0.08954469100875151, "62": 0.18941558146041967, "63": -0.4888535122280249, "64": -0.13952697034193343, "65": 0.5029333300851994, "66": -0.4104561693729106, "67": -0.41413086002508925, "68": 0.5779999292593463, "69": -0.1464936108362741, "70": -0.1719357737735913, "71": 0.13548487591725547, "72": 0.3148260721235624, "73": 0.05434815278162463, "74": -0.044719752433514275 } }, { "sx": 5, "sy": 5, "depth": 3, "w": { "0": -0.2737364982182818, "1": 0.028199326820051742, "2": 0.36202320209067324, "3": 0.0894413028338363, "4": -0.051960885062689616, "5": -0.3200264664169688, "6": 0.5523245526402375, "7": 0.17525238469195847, "8": -0.24562088072001886, "9": 0.6886255494839216, "10": 0.09182708504154244, "11": -0.023940536345347974, "12": -0.023288429828486744, "13": -0.08914156828311989, "14": 0.17902804434665356, "15": -0.09287351873962327, "16": 0.09777024062934982, "17": -0.2476808498070459, "18": 0.3611936800589668, "19": -0.2441846410668315, "20": -0.606662185804926, "21": 0.9105793503834494, "22": 0.4612663393504297, "23": -0.038705491139994566, "24": 0.0758697421460237, "25": -0.06615241138039694, "26": -0.08960276717532568, "27": -0.4349012065699102, "28": -0.14024232930463565, "29": -0.004421027786024279, "30": 0.23449000544245094, "31": -0.5009985804333547, "32": -0.6526279591096009, "33": 0.9192517349900948, "34": 0.2309371304486319, "35": 0.046899189919536434, "36": 0.7356251780189167, "37": 0.2764987184956667, "38": 0.300061591902935, "39": -0.7575236275461448, "40": -0.8347577271641686, "41": -0.2995518460391911, "42": -0.3016977333090648, "43": -0.32852097652691636, "44": 0.32926620290196057, "45": 0.47404161040499604, "46": -0.14492654095283697, "47": -0.08802271529231682, "48": 0.5174097621164806, "49": 0.4299475745595851, "50": 0.5810884568913043, "51": -0.6551043962843198, "52": -0.524010061082571, "53": -0.31642920585614975, "54": -0.929179549527482, "55": -0.7578998298273978, "56": -0.21935080919996888, "57": -0.04541028445624471, "58": 0.10655481156253141, "59": 0.5586734664870546, "60": 0.23589622284314105, "61": -0.05812487633437576, "62": -0.14903042111756523, "63": -0.2664344803853651, "64": -0.3378053236696078, "65": -0.06533888664628418, "66": -0.8862140068996418, "67": -0.19008581141036415, "68": -0.13942257671173483, "69": -0.008437287119387397, "70": 0.3289770977674698, "71": 0.6597180644011567, "72": -0.054731815230120606, "73": 0.2736115603879778, "74": 0.4433776565424893 } }, { "sx": 5, "sy": 5, "depth": 3, "w": { "0": 0.01490359653072153, "1": 0.0043252441498149805, "2": -0.05666150565051641, "3": -0.13860752707630636, "4": -0.21251914184784393, "5": -0.3984285454958509, "6": -0.8753654187904916, "7": -0.9018613054204393, "8": -1.2775957057464125, "9": 0.2617780821627119, "10": 0.282153748000189, "11": -0.2879395022356426, "12": 0.3062748989442831, "13": -0.05156961992830607, "14": -0.009789423697497508, "15": -0.03796123770951203, "16": 0.12656322030275555, "17": 0.011656659129631462, "18": -0.15915539704707826, "19": 0.18619512259112356, "20": -0.18708304716945667, "21": 0.9549014964473859, "22": 1.428741849191465, "23": 1.0913002039019248, "24": 0.9375136403578906, "25": 1.2136113033633815, "26": 1.1822721090067716, "27": -0.368384086105254, "28": -0.5082663154348956, "29": 0.012339186859581597, "30": -0.1288352566741359, "31": 0.30492911083523366, "32": 0.04917860556840704, "33": 0.22112352942762017, "34": 0.518676047474444, "35": 0.1651282515709143, "36": 0.2925822438718024, "37": 0.5327241702444528, "38": 0.4946641661461118, "39": -1.2367670835954503, "40": -1.0984329505756154, "41": -0.810964216489896, "42": -0.26711325971524474, "43": -0.393035694753811, "44": -0.04457364091294332, "45": 0.038063609728997146, "46": -0.09611001542672384, "47": -0.0014275298548267628, "48": -0.10535161239589264, "49": -0.05678567897600002, "50": 0.04781773633254962, "51": -0.761597622157812, "52": -0.8556679534896074, "53": -0.507344074893075, "54": -0.18328832798623496, "55": -0.3416160963943714, "56": -0.1060553235940512, "57": 0.5439865307850327, "58": 0.36470723054203985, "59": 0.6421685181430982, "60": 0.17379748823397406, "61": 0.017190690483688306, "62": 0.024762298397931266, "63": 0.2589550007719021, "64": -0.042496076310951265, "65": -0.005738090957770438, "66": 0.15648518275921217, "67": -0.2106873912310178, "68": 0.05947395143133405, "69": 0.4337886273582135, "70": 0.27650671448445296, "71": 0.289008734588099, "72": -0.057632990333587625, "73": -0.3539470290755638, "74": -0.2787497775833485 } }, { "sx": 5, "sy": 5, "depth": 3, "w": { "0": 0.12689466708175584, "1": 0.1118489196594815, "2": -0.06439330798027802, "3": -0.2766427753095056, "4": 0.0007285054170503828, "5": 0.3017702636390655, "6": -0.13048272042346784, "7": -0.17222111679530078, "8": 0.20794386112040267, "9": -0.043171225118776135, "10": 0.07310456673157349, "11": 0.22170087985266917, "12": 0.099472914640283, "13": -0.06777622350070368, "14": 0.27187244295445656, "15": -0.22602024903508905, "16": -0.013360173273769009, "17": 0.2889617783073446, "18": -0.033515669202757656, "19": 0.11137005181386704, "20": 0.5569774639650288, "21": -0.5463921288229798, "22": 0.07413501157567062, "23": 0.2522045714806436, "24": -0.5076502537451885, "25": 0.012978887669553808, "26": 0.05160072791350325, "27": -0.17982474935952744, "28": -0.21028975982609086, "29": -0.17223147703489264, "30": -0.30657563763400364, "31": 0.062122423775750384, "32": 0.36512010021553837, "33": -0.683618748816005, "34": -0.33326973280061345, "35": -0.11671798078043023, "36": -0.8773886666560361, "37": -0.533440632156627, "38": -0.407459917498327, "39": -0.43253649818279627, "40": -0.17503518669783183, "41": 0.19180240626285341, "42": 0.04729704102546318, "43": 0.09282535942593206, "44": -0.05797199052992885, "45": -0.2895538511499488, "46": -0.1830928362852007, "47": -0.052228704946665434, "48": -0.19968967397705129, "49": -0.12573692211520168, "50": -0.2818182121827941, "51": 0.20582283377598698, "52": 0.16728218150420696, "53": 0.25943347760673946, "54": 0.2989515566851935, "55": 0.3957842718753527, "56": 0.2900209184871743, "57": 0.33098860063767893, "58": 0.12630497607821764, "59": -0.24412003530056564, "60": 0.3789188777723087, "61": -0.12909348089512152, "62": -0.09411370142126374, "63": 0.9382216898640854, "64": 0.18132098934982144, "65": -0.2577303475097927, "66": 0.8720923354644037, "67": 0.3332868096540126, "68": -0.4261827704369476, "69": 0.7058506936594129, "70": 0.1026626497928015, "71": -0.5142757345426324, "72": 0.6809091087358546, "73": -0.021632451043463893, "74": -0.38325875309827495 } }, { "sx": 5, "sy": 5, "depth": 3, "w": { "0": -0.5312405377998507, "1": -0.367950503976726, "2": 0.24247039684058613, "3": -0.3222790258588495, "4": -0.6542941689841165, "5": 0.0674441093791404, "6": 0.4177221953630616, "7": -0.02338462471281542, "8": 0.503925207849222, "9": 0.22531511434188176, "10": -0.41053537311598487, "11": -0.18701320271321742, "12": 0.1695904614575657, "13": -0.014350762225039261, "14": 0.05531997881282615, "15": 0.10987954568759838, "16": 0.1908892523400491, "17": 0.39391815516951534, "18": -0.41739683411146206, "19": -0.6886331167386489, "20": 0.01847569936843059, "21": 0.24388424580050547, "22": -0.06483248213778586, "23": -0.11797359013391674, "24": 0.6429559391912002, "25": 0.06184246809083775, "26": 0.44664453795424963, "27": 0.5334541739626077, "28": 0.10975225102723449, "29": 0.17078109603724428, "30": 0.1965751789478294, "31": -0.16894455791239077, "32": 0.022396371374243433, "33": -0.24558119076667506, "34": -0.16348820549198542, "35": -0.33403276144018357, "36": -0.4174780140237627, "37": -0.5029962491202804, "38": -0.5708826843066076, "39": -0.22212895909678382, "40": -0.3539254805726141, "41": -0.3035573063672439, "42": -0.24167296757945023, "43": -0.647039067146521, "44": -0.10138598375294261, "45": 0.08009438177275446, "46": 0.3800359419184039, "47": 0.15954215079060724, "48": 0.18403834532529278, "49": 0.0357254582659014, "50": -0.011270482209209835, "51": -0.039663589776548, "52": -0.1591855718736248, "53": -0.32635072627761036, "54": -0.18851883062746208, "55": -0.26595909006344853, "56": -0.4524347387703208, "57": -0.28223084811999233, "58": -0.4523902493926303, "59": -0.2080398632408356, "60": 0.1762044733291503, "61": 0.17996807298906087, "62": -0.099673266876494, "63": -0.035102176283340114, "64": 0.02128444592021315, "65": -0.09424800755892926, "66": -0.27637738969826164, "67": -0.06041338056736937, "68": -0.36080298614461376, "69": 0.15637978916939896, "70": -0.024439223641443096, "71": 0.1875853243684523, "72": 0.248205082013242, "73": 0.021118582251015715, "74": -0.15553424505038804 } }, { "sx": 5, "sy": 5, "depth": 3, "w": { "0": -0.2810244292569181, "1": -0.049676440080890144, "2": 0.12863067987041663, "3": -0.45937645435524277, "4": -0.3210008171512093, "5": -0.2473969925789823, "6": -0.3789278213413933, "7": -0.1773172163877848, "8": -0.2869207041441617, "9": -0.015717045939545083, "10": 0.06472429796458187, "11": -0.21942532077906526, "12": -0.13483544016653565, "13": -0.03375239846978865, "14": 0.0856997523869655, "15": 0.45610779965837683, "16": 0.2578078171815742, "17": 0.43948470962685526, "18": 0.434627939994557, "19": 0.3535525137282956, "20": 0.46044969654644996, "21": -0.37235886308273597, "22": -0.16368276937808837, "23": -0.354807448829811, "24": -0.32576383660466024, "25": -0.3356837551674721, "26": -0.6704726818990765, "27": -0.22895398662488292, "28": 0.029523886518560558, "29": -0.1973610209064263, "30": 0.2918787536341614, "31": -0.18649044229228942, "32": -0.014048092462007443, "33": 0.5145426789160735, "34": 0.4062512839467103, "35": 0.4259661885920064, "36": 0.5986130946838761, "37": 0.40020961257482696, "38": 0.3013416054514062, "39": 0.02303232790732005, "40": -0.15251642316477645, "41": -0.3509783685934443, "42": 0.015969886366960614, "43": -0.12443039516228466, "44": -0.7232267123038931, "45": 0.075868685450201, "46": -0.12343160111083704, "47": -0.04113900616452496, "48": -0.10310381270790384, "49": 0.011731396055460683, "50": 0.011941692217831706, "51": 0.27183395318286074, "52": 0.07141239604514206, "53": 0.38447406121672556, "54": 0.4653267102613891, "55": 0.1556339490189664, "56": 0.3498417540135183, "57": 0.39335060408260125, "58": 0.23347505906388147, "59": -0.0935892117166345, "60": -0.313749245240919, "61": -0.23036266783252698, "62": -0.03311487720680165, "63": -0.33956576732450966, "64": -0.09023932179048785, "65": 0.17607362735325768, "66": -0.22845435024261357, "67": -0.17159530684325758, "68": 0.1398275703825059, "69": 0.010942399460436918, "70": -0.12581829779481046, "71": 0.09957596542713043, "72": 0.12584606149563995, "73": 0.004544312293713303, "74": 0.029975132491342805 } }], "biases": { "sx": 1, "sy": 1, "depth": 16, "w": { "0": -0.32818152295285824, "1": -0.13870257871994182, "2": -0.5983095383635416, "3": -0.22563742881383012, "4": -0.23688559416014054, "5": -0.17255810471729371, "6": -0.361300599989411, "7": -0.23398920396932954, "8": -0.41043135005178555, "9": -0.14219182947163192, "10": 0.032002217054889565, "11": -0.27133977304492285, "12": -0.23028638945106658, "13": -0.19478775821790012, "14": -1.3584177267550674, "15": -0.2975448105258786 } } }, { "out_depth": 16, "out_sx": 32, "out_sy": 32, "layer_type": "relu" }, { "sx": 2, "sy": 2, "stride": 2, "in_depth": 16, "out_depth": 16, "out_sx": 16, "out_sy": 16, "layer_type": "pool", "pad": 0 }, { "sx": 5, "sy": 5, "stride": 1, "in_depth": 16, "out_depth": 20, "out_sx": 16, "out_sy": 16, "layer_type": "conv", "l1_decay_mul": 0, "l2_decay_mul": 1, "pad": 2, "filters": [{ "sx": 5, "sy": 5, "depth": 16, "w": { "0": 0.19196899118274285, "1": 0.10868324000855721, "2": 0.06432988257890086, "3": 0.031281706375310664, "4": 0.1837924845231979, "5": 0.06782986636641504, "6": 0.18874461508631546, "7": -0.10865156549317495, "8": -0.1399351094378471, "9": 0.06790708864465095, "10": 0.14480159532290166, "11": 0.21451142730519132, "12": 0.1752430793913766, "13": 0.05326251447757198, "14": -0.24568941148749104, "15": -0.09049854976016414, "16": 0.0034895491510933997, "17": 0.3059823108074267, "18": 0.10693634295056491, "19": 0.2643024094350126, "20": 0.0271580895852235, "21": 0.12969109465671844, "22": -0.10427611887330743, "23": -0.020465193429579177, "24": 0.04639923628344689, "25": 0.026944562358993673, "26": 0.06056900163165884, "27": -0.11132544662236431, "28": -0.17066717422753166, "29": 0.20291668098207122, "30": 0.047714625301114935, "31": -0.18563659816817762, "32": -0.14701147849229873, "33": 0.23905179416852748, "34": 0.0644364451383843, "35": -0.006376621614387186, "36": 0.09760256812526703, "37": 0.07257600827747993, "38": -0.1276961852060513, "39": -0.1925455761315537, "40": 0.21194237696947232, "41": -0.012507810872374089, "42": 0.015632278058953366, "43": 0.3697937750985999, "44": 0.01804891843384492, "45": -0.05920432272954455, "46": 0.3206309129786348, "47": -0.27462915500477364, "48": 0.03559585289039559, "49": 0.07421967297785377, "50": 0.09104492225243015, "51": 0.0198157825206054, "52": 0.13376374786630177, "53": 0.14365659628661176, "54": -0.3064273978391057, "55": -0.2170378807727192, "56": -0.04083459476189707, "57": -0.01482059294571464, "58": 0.1810561761136806, "59": 0.33314698745462534, "60": -0.10902344251372807, "61": -0.01847744781433721, "62": 0.1371985298886444, "63": -0.17593732002734053, "64": -0.03926303388606374, "65": -0.1770114405216148, "66": -0.08913920812021542, "67": 0.0530213324678115, "68": 0.09089804736001533, "69": 0.020506594733160553, "70": -0.09245903867920614, "71": -0.12085372725285802, "72": -0.26810540438015584, "73": -0.09958983227862978, "74": 0.0696886136015667, "75": -0.1366954426244559, "76": -0.14699183812852146, "77": -0.07305538960208234, "78": 0.08151759207854395, "79": -0.11898201333811001, "80": -0.1499934782028433, "81": 0.20673722295297167, "82": 0.1541709494295088, "83": 0.05916864721066392, "84": 0.2705364889419447, "85": -0.11739262060278136, "86": 0.09854341504195421, "87": -0.14029542586028637, "88": 0.11533163186469098, "89": -0.07270646030999238, "90": -0.2095587703073771, "91": 0.14488238926592187, "92": 0.3005344595931097, "93": 0.16811776536741746, "94": 0.30796099836713164, "95": -0.2655535802101925, "96": -0.25194020071238193, "97": 0.11113750717595976, "98": 0.06785087590317918, "99": -0.09166756637174514, "100": -0.028454409108560525, "101": -0.20528653564770133, "102": -0.1752799925975143, "103": -0.528187552591821, "104": 0.1271330352907448, "105": -0.08157656922604743, "106": -0.1911666576204676, "107": 0.5436908641628571, "108": 0.08889453011239835, "109": -0.06789257276854227, "110": 0.3147265157119033, "111": -0.4811285033942346, "112": -0.16698131160220273, "113": -0.18362346819057002, "114": -0.11593772468272188, "115": -0.11822692311177403, "116": -0.12545916510847802, "117": 0.034315240750030715, "118": -0.18268354934186673, "119": -0.40484155177134556, "120": -0.08249201141152358, "121": 0.035053854663937116, "122": -0.21132465838883463, "123": 0.37595051166647553, "124": 0.004274025186696171, "125": 0.25596706070431396, "126": -0.036911641223670265, "127": -0.30519159348094443, "128": 0.024039055757226094, "129": -0.011210941500507839, "130": -0.12713403851305155, "131": 0.49611824352743167, "132": -0.17954258581997332, "133": -0.13739061866463428, "134": -0.10048253547850079, "135": -0.1118018090207235, "136": -0.14910892816210852, "137": 0.030775306439229096, "138": 0.1723481710401058, "139": -0.24681747008420657, "140": -0.03816859622889201, "141": 0.05157057436653682, "142": -0.20019528893717461, "143": -0.06511293397334167, "144": 0.09525881616063668, "145": -0.06442207370479769, "146": -0.11648876393728615, "147": -0.07819009342929194, "148": 0.06899833317163921, "149": -0.03851134657668901, "150": 0.206388147822802, "151": -0.17252047157430858, "152": -0.14302727370439677, "153": -0.016859872015622758, "154": 0.16066765375030947, "155": -0.18027480573531102, "156": -0.16130134059904844, "157": -0.35360440096312173, "158": -0.16272343291253924, "159": -0.0416299388829723, "160": -0.12060663499797196, "161": 0.11145930709397547, "162": 0.11459204531664094, "163": 0.0017300916445123328, "164": 0.2924774943082171, "165": -0.26560494513837923, "166": 0.08809964978594292, "167": -0.23837463794425104, "168": 0.2513212229880437, "169": 0.10713215174376718, "170": -0.31926461450445814, "171": 0.24286853434771707, "172": 0.3578825523763284, "173": 0.5903783633995004, "174": 0.06317312651676017, "175": -0.24083192440978565, "176": -0.18961252329454664, "177": -0.034310317819922394, "178": -0.060532499851060226, "179": 0.14835294694947165, "180": -0.23312928678265588, "181": -0.2640161690192084, "182": -0.1482639296916599, "183": -0.8003331463839511, "184": 0.08520416532423802, "185": -0.02673510247120161, "186": -0.17420959247470594, "187": 0.4397951216430675, "188": 0.2914638067588954, "189": 0.4133262262644519, "190": -0.136325047147859, "191": -0.4697190284043668, "192": 0.15808300541197198, "193": 0.08876238735417308, "194": -0.04271551236966377, "195": 0.6953181308557035, "196": -0.2617763471335831, "197": -0.18282117217980431, "198": -0.07994827470440073, "199": -0.4922438390990745, "200": -0.06185069648700942, "201": -0.04146139710259961, "202": 0.17382789976283997, "203": -0.031010362399502663, "204": 0.04233065208543119, "205": -0.09469614241019661, "206": -0.2253002754059597, "207": -0.37502650312584673, "208": 0.03466974691071531, "209": 0.14886253968482005, "210": 0.028966219156004707, "211": -0.09134024084120952, "212": -0.03998291060439725, "213": 0.0009428494935980152, "214": 0.032108037287688046, "215": -0.2582569162533811, "216": -0.07963623237535092, "217": 0.022598819371057385, "218": 0.04636649871468774, "219": 0.20136300195625714, "220": -0.19942478681297865, "221": -0.2621350603633101, "222": -0.24199501828399306, "223": -0.3431266390595315, "224": 0.07231803316580598, "225": 0.1214068492954931, "226": -0.17031510851976442, "227": -0.031367809530279504, "228": 0.12822250248667064, "229": 0.08222546065664982, "230": 0.18232494933078897, "231": -0.012209596357908303, "232": -0.14401102731184154, "233": 0.09936512420221709, "234": -0.06359663866495291, "235": 0.23674579406080157, "236": -0.20099307730923188, "237": -0.26726041673595213, "238": -0.1766430076975591, "239": -0.2408065168859173, "240": -0.19569129835846746, "241": -0.012627446432367948, "242": -0.2531709459408978, "243": 0.06558657936739165, "244": -0.2959361910029071, "245": 0.04393219970981377, "246": -0.08858401804278783, "247": 0.0008660520435403159, "248": 0.16385302587310183, "249": -0.17831872898883522, "250": -0.14255755912601994, "251": 0.0993774498698321, "252": 0.2835734235857255, "253": -0.17577938536312343, "254": -0.264315323728495, "255": -0.026325389294506514, "256": 0.10002217071884896, "257": -0.11946476027578826, "258": -0.04824709648831152, "259": 0.33334873027955125, "260": -0.3101845591650229, "261": -0.1966191325430282, "262": 0.06218025200009531, "263": -0.11364198951025506, "264": -0.13755492223547416, "265": -0.09278820476041559, "266": -0.08291775195587692, "267": -0.2084735253363996, "268": 0.12271031421327175, "269": -0.13859768867126673, "270": -0.04454469549604199, "271": -0.16998880662070817, "272": 0.13665061086746091, "273": 0.22425766231807354, "274": 0.05531307909365512, "275": -0.1862363805751266, "276": -0.09952741364244976, "277": -0.1514343403967758, "278": 0.00046314493630821214, "279": -0.07482547572436701, "280": -0.3547203159081844, "281": -0.0559352807365166, "282": 0.05740356810152686, "283": 0.0747811404402883, "284": 0.14787862314321124, "285": -0.033025625313538025, "286": 0.024703171518762203, "287": -0.22930688967983148, "288": 0.18877812690402684, "289": 0.0996841997136327, "290": 0.07008327079445865, "291": -0.26301053001741276, "292": 0.011052076979260392, "293": 0.051731071184893875, "294": 0.02189342240225519, "295": -0.12058768659809342, "296": -0.01786762264669249, "297": -0.028451496609884296, "298": 0.08047310617588602, "299": 0.15037324810212638, "300": -0.39698045361460876, "301": 0.09272128107024984, "302": -0.06123221384252612, "303": -0.25071004865533786, "304": 0.26117661711698525, "305": -0.0017126810028450432, "306": 0.04555206358687018, "307": 0.009886717085212453, "308": -0.047403211878139215, "309": -0.05464503319225513, "310": -0.10647833022902602, "311": 0.021578116503524234, "312": -0.11706524725757854, "313": -0.04014551666043769, "314": -0.009379777336019902, "315": 0.0857638560513172, "316": -0.3227775430698286, "317": -0.20475338851265978, "318": -0.07231616191065883, "319": -0.15244453045095743, "320": -0.18788620360830272, "321": -0.06370082898575245, "322": -0.051801112910620645, "323": 0.283553422856143, "324": 0.06939645047556146, "325": -0.09203649332722587, "326": -0.11787227003410759, "327": 0.10277064330178433, "328": 0.3411432331724329, "329": -0.05763153310865289, "330": 0.12244904811343131, "331": -0.2056575701597543, "332": -0.015180767595562179, "333": -0.21080837577720238, "334": 0.2954408803372337, "335": -0.03945282929248539, "336": 0.13557408926714604, "337": -0.14245606646695957, "338": -0.008814431653442784, "339": -0.0013894464985286965, "340": 0.08711440944923575, "341": -0.07999577570201202, "342": -0.008109239652467402, "343": 0.4454065870491382, "344": 0.10750636316768644, "345": -0.10871605682274291, "346": 0.04113539775882468, "347": -0.2969876130489258, "348": -0.15998912812742738, "349": 0.007552114395883134, "350": 0.18322347535651293, "351": 0.14994046159164348, "352": 0.40878682517329923, "353": -0.051147836592536286, "354": 0.13334391529207112, "355": -0.17849671239338713, "356": 0.0785515235364444, "357": 0.06140938185315015, "358": 0.14984569852691906, "359": 0.21172633378539824, "360": -0.0032886688223392473, "361": -0.12181344706294278, "362": 0.012647291297281227, "363": -0.02623095054383322, "364": 0.02426323684872786, "365": -0.039304544772644785, "366": -0.12734561611127862, "367": 0.1686072421904908, "368": 0.10283388771670006, "369": -0.030160449382692512, "370": -0.06414363227271652, "371": -0.09432924437292503, "372": 0.07289628118781082, "373": -0.00911718748170615, "374": 0.07222516592212855, "375": 0.07441876939343102, "376": -0.08023126442544233, "377": -0.06357117705821072, "378": 0.0065953136816424476, "379": -0.036114227371009174, "380": 0.012797613480622331, "381": 0.012426140572004212, "382": 0.013744228218597554, "383": -0.16260716886513188, "384": -0.039259585213222876, "385": 0.060821857566249436, "386": -0.0070177218651396745, "387": -0.036875213781210225, "388": -0.04716632965871759, "389": 0.04694517074964719, "390": -0.13101484832360266, "391": 0.036308989315289884, "392": -0.01833039017624268, "393": -0.09487140964989818, "394": -0.17150765078791216, "395": 0.1914230487929683, "396": 0.0639836521738693, "397": -0.022269999859763988, "398": 0.05045598655250567, "399": -0.037932757343387746 } }, { "sx": 5, "sy": 5, "depth": 16, "w": { "0": 0.13268800827989788, "1": 0.36853681149250106, "2": 0.24016745932767247, "3": -0.02827964190302973, "4": 0.035912961917498855, "5": 0.14056650891238723, "6": -0.03675316847270705, "7": 0.2380441857203602, "8": 0.07232648245372171, "9": 0.27023376380308356, "10": -0.20644064517621064, "11": -0.026113602719859727, "12": 0.05419897187525393, "13": -0.15442059706509925, "14": 0.07579092133547628, "15": -0.050707751338930226, "16": -0.015348810790798046, "17": -0.11809854834168954, "18": 0.47680588249087835, "19": -0.4029149343413415, "20": -0.07723668293011783, "21": 0.04739763531565917, "22": 0.07687332480608929, "23": 0.04661938022151083, "24": -0.10135015076894278, "25": 0.1568768300230087, "26": -0.07030605936459335, "27": -0.15383792705632546, "28": 0.07718574339809257, "29": -0.15677964776040668, "30": -0.04995664963052097, "31": 0.08397648817986988, "32": 0.011885302950553392, "33": 0.05336324882486832, "34": 0.4702576903971153, "35": -0.48350132081315333, "36": 0.0184847646987542, "37": -0.09130072687164989, "38": -0.0090501049960091, "39": 0.06321499373853137, "40": -0.21982628841376126, "41": -0.10506119450153574, "42": -0.026372420720079223, "43": -0.022850433721081753, "44": 0.019039441781051804, "45": -0.0253937898542771, "46": -0.041126975645578816, "47": -0.02672209834879128, "48": -0.03630556253799801, "49": -0.18690164919515348, "50": 0.2921288626429278, "51": -0.1820266133107343, "52": -0.04904598908838034, "53": -0.19242415536530041, "54": -0.020166145888490927, "55": -0.018277102990505046, "56": -0.17538126542801202, "57": -0.18693292237221176, "58": 0.11817542893219962, "59": -0.03918435907313138, "60": -0.011351094773165283, "61": -0.022269637908597564, "62": 0.11192282019693643, "63": -0.11477147013596017, "64": 0.22241540165275295, "65": 0.010958092744926099, "66": 0.28242704071307445, "67": 0.06615763147242842, "68": -0.13736264591915082, "69": 0.008396882315420498, "70": 0.04727655441321027, "71": 0.09507784768685262, "72": -0.32009884958516344, "73": -0.29784436332366926, "74": -0.04333200677023197, "75": 0.2681268969720812, "76": -0.02128263409946413, "77": 0.13013672590149694, "78": 0.11440487971357446, "79": -0.05814591880544236, "80": -0.10085858003248253, "81": 0.45014357540925076, "82": -0.13168659785689474, "83": -0.05981055871125863, "84": -0.16696392180881883, "85": 0.14965502316338455, "86": -0.1730884784374597, "87": -0.07898025833425845, "88": 0.16500019224163348, "89": 0.36815991202710385, "90": -0.19261862028462232, "91": -0.03193663707477173, "92": 0.02284339568164194, "93": -0.06181966843961292, "94": 0.1211405619965006, "95": -0.10394645823434885, "96": -0.1917672082476074, "97": 0.09177932079366591, "98": -0.05049983587720934, "99": -0.3756512614989777, "100": 0.02941180497093203, "101": 0.13454751687954394, "102": 0.3506561257230134, "103": -0.09478636321157574, "104": -0.044278055829030445, "105": 0.07979064629381678, "106": -0.13019784679689209, "107": -0.08394910498304443, "108": 0.1640310546606468, "109": -0.020290445369686414, "110": 0.058948005147623835, "111": -0.1448471884108155, "112": -0.2330862432087877, "113": -0.021563857011492597, "114": 0.1001939269424679, "115": -0.32035322877824984, "116": 0.1345663729890991, "117": 0.16121811227723884, "118": 0.49724511923633896, "119": 0.014683661858242512, "120": 0.0788965386151069, "121": -0.05000750214361642, "122": -0.1014336353996841, "123": 0.10397865322199112, "124": 0.11621383701746694, "125": -0.02224698526644419, "126": 0.21029543554093558, "127": 0.04172794636412548, "128": -0.39789818370179575, "129": -0.1314970751945819, "130": 0.08522994783750959, "131": -0.21289456577909405, "132": 0.051902415059609956, "133": -0.2477428054260575, "134": 0.2998502635355197, "135": -0.02411451892124865, "136": -0.10393676542690213, "137": -0.29213707239100956, "138": -0.0839740809403611, "139": -0.007932637947848232, "140": 0.23138616546621746, "141": -0.015521696384734709, "142": 0.09202333997140863, "143": 0.07536574480947807, "144": -0.16204216074079397, "145": -0.21782594255160717, "146": 0.20833494837130026, "147": -0.10485865250584302, "148": -0.015671994383020173, "149": -0.16518929626598763, "150": 0.22288029240804028, "151": -0.15596011637421697, "152": -0.18374347852765377, "153": -0.3060053550143725, "154": 0.10856194890688896, "155": -0.0015254776650678356, "156": 0.05682243116679921, "157": 0.2056467010321022, "158": -0.04595439031941508, "159": 0.201005863523513, "160": -0.04476658595141992, "161": 0.057875244599396754, "162": -0.38045437525751763, "163": -0.0021431442745260217, "164": -0.07443015278164274, "165": -0.06475420746447477, "166": -0.040256632288621336, "167": -0.12604608056642522, "168": -0.028886485666979045, "169": 0.33604858669913384, "170": 0.14490419550786268, "171": -0.12109037735649847, "172": 0.08666806296532885, "173": 0.21883185742493222, "174": -0.15735858454501106, "175": 0.22708968928759757, "176": -0.17449048340702475, "177": 0.21315596807664275, "178": -0.19231870053666905, "179": -0.3277369134441486, "180": -0.059451955309593636, "181": -0.09822680185895089, "182": -0.27539314580030183, "183": -0.4220879916729481, "184": -0.02197321207095904, "185": -0.050985630999644, "186": -0.03266039787957001, "187": -0.06726918279466527, "188": -0.007281194484905115, "189": 0.018812641395079377, "190": -0.037791583886981284, "191": -0.19808033888031526, "192": -0.16983138261174502, "193": 0.2150464408148069, "194": -0.05611106653569891, "195": -0.18218143769828882, "196": 0.22949704449173394, "197": 0.04385145302848934, "198": -0.08568800700514717, "199": -0.2046138736166205, "200": -0.0052866247614510075, "201": -0.025642596332656135, "202": -0.07774317045293615, "203": 0.036153259110995824, "204": -0.0653979894447585, "205": -0.03256248495086311, "206": 0.16070597171613274, "207": -0.023311946936423227, "208": -0.25586274543001636, "209": -0.04060908839227015, "210": -0.04152257086272767, "211": 0.18110724527577618, "212": 0.10795133786631197, "213": -0.24171433234317216, "214": 0.1041718231495703, "215": 0.009891484383992172, "216": 0.022836737314093542, "217": -0.17500015986001274, "218": -0.16239079341083013, "219": -0.03463268859957998, "220": -0.13238913391980078, "221": -0.04462761565950421, "222": 0.26547701765484866, "223": 0.040996264003685716, "224": -0.08834193535211361, "225": -0.32044942855580477, "226": -0.031813691947868504, "227": 0.13244764476067877, "228": -0.11448229173732352, "229": -0.0896902366239795, "230": 0.30926621765379037, "231": 0.08040879989180995, "232": -0.22192581320254978, "233": -0.15165593349444972, "234": 0.18937845127523287, "235": 0.0728895167419318, "236": -0.06539672437802126, "237": 0.21846013210843437, "238": 0.04782498531749988, "239": -0.10150545971400604, "240": 0.08675580722021771, "241": -0.10620608476227687, "242": 0.11608804125899683, "243": -0.0269170309546087, "244": -0.10301095197627937, "245": -0.11589447471123693, "246": 0.09712509222982336, "247": 0.17111949501614215, "248": -0.05517640023608323, "249": 0.05606241880739977, "250": 0.16739971731256792, "251": -0.06845119314751778, "252": 0.32569556417267864, "253": 0.24065782784247433, "254": -0.08579571503675192, "255": 0.24176350942649436, "256": -0.08698137451751563, "257": 0.009513496589530034, "258": 0.041893615551644996, "259": -0.2057623395207627, "260": -0.13457878077234903, "261": -0.1466301409768838, "262": -0.259777401352878, "263": -0.21309603734039742, "264": -0.06146219495956882, "265": -0.07181190542255014, "266": -0.035373700608580735, "267": -0.11258119463280933, "268": 0.02629406656882002, "269": 0.09850874981624012, "270": -0.13147434193746385, "271": -0.02425078137115935, "272": -0.1774574434652928, "273": 0.013581949666066103, "274": 0.03528515085555646, "275": -0.3182695210918261, "276": -0.009731376355684293, "277": -0.2924750365397912, "278": -0.27678493017831285, "279": -0.25124294576425854, "280": 0.042785871770237405, "281": -0.08478901073196571, "282": 0.004754994616747041, "283": -0.15868750121549338, "284": -0.14046485121765442, "285": -0.05827867186473998, "286": -0.19921299566901998, "287": -0.10727202671942104, "288": -0.18738625438818798, "289": -0.08050675899465684, "290": -0.05101859758180757, "291": -0.19790979146397777, "292": 0.09121028780401669, "293": -0.058260224723325774, "294": 0.01665719028384655, "295": -0.09859516067105169, "296": -0.006541698507242125, "297": -0.14923761588654322, "298": 0.030864530772339, "299": -0.15608153777483938, "300": -0.25259283687289635, "301": -0.02565548816351147, "302": -0.12034595666889539, "303": -0.06254273877637942, "304": -0.008355373254796879, "305": -0.3302279002819153, "306": -0.16097402761473403, "307": -0.07092198348834475, "308": -0.09326385007662254, "309": -0.09339955874236215, "310": 0.020764838683765132, "311": 0.11050030936716744, "312": -0.06155965288160546, "313": -0.2856241705295861, "314": 0.2065688893764414, "315": -0.18332338140471044, "316": -0.13061183724703138, "317": -0.11474644536730355, "318": -0.15184561406758673, "319": -0.0002038468522021881, "320": 0.006334322508432799, "321": -0.36493318776289585, "322": 0.06654758735153328, "323": 0.02020274624944493, "324": -0.09887398287243798, "325": -0.28950097954911436, "326": 0.20928447974356632, "327": 0.16625226733401827, "328": -0.045625489185414855, "329": -0.09395759556142537, "330": 0.04280900158968196, "331": -0.018177332019284006, "332": 0.14831150636527188, "333": 0.15139111033576508, "334": -0.028574369540754447, "335": 0.04000108600773046, "336": 0.06735335546490671, "337": -0.33250160566971143, "338": 0.05341200626231358, "339": -0.18222842416013552, "340": -0.08286720515063674, "341": -0.19897019646578581, "342": 0.050984865871289975, "343": 0.0007578658773939128, "344": 0.03579206743992828, "345": -0.07512739979334, "346": 0.06397584668176952, "347": -0.12580419185701014, "348": -0.1052937856438597, "349": -0.06247871970756486, "350": -0.17094073012690647, "351": -0.05993954634067129, "352": 0.08299755170171878, "353": -0.3179853813039387, "354": -0.018010429211645296, "355": -0.13141720193390793, "356": 0.016419959642805536, "357": -0.12184701910431887, "358": -0.02205650687537918, "359": -0.006335859360238163, "360": 0.07351045654616772, "361": -0.07246938549499564, "362": 0.07513808803852229, "363": -0.15098400665535885, "364": -0.18578183745026183, "365": 0.044974640223084346, "366": -0.19015991023299564, "367": 0.027470021869641488, "368": -0.04873462118916142, "369": -0.1335927266352834, "370": -0.038082603755898996, "371": -0.035704751697662004, "372": 0.10204712060596888, "373": -0.08811639666320382, "374": -0.18790883853477106, "375": -0.13350822370474508, "376": 0.2187921584905759, "377": -0.22948784322344948, "378": 0.16299875931283161, "379": -0.27816673977929957, "380": -0.18665771394302236, "381": 0.06762954214483535, "382": -0.15535515898716593, "383": -0.013811778696713475, "384": 0.20205323395877886, "385": 0.037270548833633545, "386": -0.0490032404320195, "387": -0.08967223556513167, "388": 0.018517798350869634, "389": -0.07895989997000424, "390": -0.054982532394619005, "391": -0.15731845994438756, "392": 0.22503391865619865, "393": -0.24335073278619623, "394": 0.27669537760602175, "395": -0.3454601603137627, "396": -0.10091346795392761, "397": 0.08800583874088216, "398": -0.1194939125859674, "399": -0.14219146296489493 } }, { "sx": 5, "sy": 5, "depth": 16, "w": { "0": 0.1791572691440445, "1": -0.13464892420257343, "2": 0.1999025516046064, "3": -0.052079444564068954, "4": 0.10799166282997243, "5": -0.025907003152679197, "6": -0.11740456290787477, "7": -0.07497575892464571, "8": -0.12517044854684795, "9": -0.29593490389616806, "10": -0.10022552030416575, "11": 0.16559337073034447, "12": -0.06804257003880475, "13": 0.11498194985175723, "14": 0.019715567957739558, "15": -0.041536284315395994, "16": -0.10696741681852433, "17": -0.3174379669759573, "18": 0.1486620546172739, "19": -0.14000160051513771, "20": 0.16174877553721828, "21": -0.13319890763149822, "22": -0.061591189431648076, "23": -0.2081996330638636, "24": -0.33107507760267996, "25": -0.21211108833801304, "26": -0.0015288468465999342, "27": -0.21718336555029155, "28": 0.08935677499505795, "29": 0.14739313942823862, "30": -0.24124581225683267, "31": 0.06203589728938211, "32": -0.21675896356887076, "33": -0.09202240941940108, "34": 0.13470378053529009, "35": -0.20583827264330395, "36": 0.1961453861662975, "37": -0.2009122504734219, "38": -0.1042184444860256, "39": 0.03171793970076451, "40": -0.16342897996169853, "41": 0.0260738959720092, "42": -0.04243073366603131, "43": -0.3317399828722503, "44": 0.15396871075051732, "45": -0.17966008938604364, "46": -0.13453862201702108, "47": 0.016789330890939112, "48": 0.07186340710681219, "49": 0.2445809746713292, "50": 0.00906554914323453, "51": -0.03669236145505268, "52": 0.0016033606086450474, "53": 0.0962470655343134, "54": -0.08355541127654824, "55": 0.18896561132352474, "56": -0.2326595005695478, "57": 0.046887824919001876, "58": -0.04252166033184032, "59": 0.12228002889820176, "60": 0.002622785087922891, "61": -0.03594035492357461, "62": 0.1738573644780821, "63": 0.013533771062454455, "64": 0.0038192357703376247, "65": 0.20804321611587784, "66": 0.0012299683001074438, "67": 0.023720427329457887, "68": 0.053161650097988095, "69": 0.20784791299531466, "70": 0.24961620867143264, "71": -0.23003947275482228, "72": -0.1903335536999046, "73": -0.08996104341379553, "74": 0.062093635347304485, "75": 0.01311160838369508, "76": -0.005885872725352946, "77": -0.10685681582030372, "78": 0.3355069044373649, "79": 0.002161355692319052, "80": 0.2672692498345668, "81": 0.2703916484809428, "82": 0.13357537820331977, "83": -0.012767780309361503, "84": -0.20163604884875092, "85": -0.11749353166720697, "86": -0.08074567209730261, "87": 0.017719525977039064, "88": 0.1213122704612663, "89": -0.02202662712326399, "90": -0.25498619264351563, "91": 0.24360254732302225, "92": 0.008230091318789566, "93": 0.1284513205146692, "94": 0.08618553057230384, "95": 0.1440616271710182, "96": -0.13996726545660448, "97": -0.022182580858489967, "98": -0.048391941837612536, "99": -0.07846191258313392, "100": -0.0598182304832178, "101": 0.02211778588293838, "102": 0.20179451142914018, "103": 0.25110570076365585, "104": -0.24405196712982133, "105": -0.3998517623260016, "106": -0.025058966820764323, "107": 0.4451328786751578, "108": 0.11212774871265231, "109": 0.42660277451568845, "110": 0.17450183598854754, "111": -0.10488203709065819, "112": -0.42367841054806665, "113": -0.008936659845458357, "114": 0.05691501150204683, "115": -0.16233668912396573, "116": 0.276859556141856, "117": -0.09145768512656481, "118": -0.07698346183624094, "119": 0.13783253792028868, "120": -0.09122063078175244, "121": -0.003829846058564538, "122": -0.19418061977985215, "123": -0.08087128076216282, "124": 0.16395382051153404, "125": -0.005641902650194033, "126": -0.2755011094884729, "127": 0.0425743582501719, "128": -0.17457422334724237, "129": -0.1193131636516044, "130": 0.13957067783785426, "131": -0.11629887728830006, "132": 0.2204468190694068, "133": -0.16690992674919825, "134": -0.29861849118741896, "135": 0.0469795520774657, "136": -0.17605247245558703, "137": 0.34661522876322653, "138": -0.25518554572564073, "139": -0.149834343030125, "140": -0.07995947205513262, "141": -0.08731741185736516, "142": -0.34583509383647604, "143": 0.02571073609180594, "144": -0.1418665632528948, "145": 0.11086746775968186, "146": 0.18799005473570557, "147": 0.11475124853195999, "148": 0.1654695075574162, "149": -0.044313953020105316, "150": -0.20337110339903255, "151": -0.3024268264686046, "152": 0.06085024224243956, "153": -0.012608939476635952, "154": -0.14040758789671065, "155": -0.26521165096983845, "156": 0.10693359162410421, "157": 0.042444374520697825, "158": 0.2750664449549503, "159": -0.2609986987974841, "160": 0.0621219319132378, "161": 0.14373192313719552, "162": -0.06700662460041099, "163": 0.000037620220373829396, "164": -0.3656352577374029, "165": -0.07150851840181463, "166": 0.04651442018663422, "167": 0.10961534861771341, "168": 0.011902979432244104, "169": 0.2420865500722642, "170": -0.1360737239691319, "171": 0.2573565950287154, "172": -0.22692742639751268, "173": -0.0030295124399347746, "174": 0.10412233428746479, "175": -0.018112084068778508, "176": -0.31687689413041265, "177": -0.16397525827316103, "178": -0.3015546513204081, "179": -0.039440902068638616, "180": -0.6764536900176353, "181": -0.015450353422151408, "182": 0.429789213990292, "183": 0.04137796106323465, "184": 0.011528551632575346, "185": 0.01305401314689673, "186": 0.12431137338137321, "187": 0.6006757532554978, "188": 0.14457525259650586, "189": 0.11529077673391185, "190": 0.39793950461708066, "191": 0.10740650029348629, "192": -0.12978626670805649, "193": 0.013487234262406694, "194": -0.3880349991378244, "195": -0.010048795444145633, "196": 0.18167362348596702, "197": 0.16283540257675438, "198": -0.027896277589898547, "199": 0.637692812402283, "200": -0.08051774345293536, "201": -0.05119839387431329, "202": 0.0441557532604407, "203": 0.04076256153506121, "204": -0.03515304418170105, "205": -0.09160695165968658, "206": 0.4299841436249062, "207": 0.17319086299627368, "208": -0.2577781255172252, "209": -0.17790329716231076, "210": 0.1144460157643838, "211": 0.35057176870334, "212": 0.2635346323523562, "213": -0.04750983242332198, "214": -0.15067842449535698, "215": 0.002842032058366228, "216": -0.07507076552132429, "217": 0.01948515886474361, "218": -0.11104173502413041, "219": -0.06942591330417867, "220": -0.3163457375417049, "221": -0.41620962952634805, "222": -0.19787530079723686, "223": -0.23243031404552617, "224": -0.13932250677953237, "225": -0.14670169333650368, "226": 0.11839867623230517, "227": 0.06797951967062704, "228": 0.4616844971968474, "229": -0.04478148453591948, "230": -0.2698889722572556, "231": -0.16396518697357998, "232": -0.04046215656578628, "233": 0.09226403200656338, "234": -0.21297332323459278, "235": -0.34777770281567716, "236": 0.08264988127254683, "237": 0.02105575940349912, "238": -0.3464897604992215, "239": -0.050688071037397565, "240": -0.014261846130896552, "241": 0.1314513474916108, "242": 0.18914103369542448, "243": -0.1029629541583279, "244": -0.252761165871661, "245": 0.15353765627305915, "246": -0.1787921214489086, "247": 0.2883130477635974, "248": 0.1801140511228391, "249": -0.18256118589204265, "250": 0.08431058670127602, "251": 0.10714583387477337, "252": 0.2076928818262633, "253": -0.17823757297576673, "254": -0.23900646189792982, "255": -0.11575973517624338, "256": -0.5155491999731718, "257": -0.15613183051920373, "258": -0.2696882530054188, "259": -0.07580913891616588, "260": -0.5238145510399059, "261": 0.21742380595092073, "262": -0.384210938541232, "263": 0.2905669352407271, "264": -0.12506249910303208, "265": 0.21466667593776484, "266": -0.09087680057115109, "267": 0.07359492003697506, "268": -0.19985529587597042, "269": -0.15230610309903797, "270": -0.36451335349150776, "271": -0.00900507947464478, "272": -0.19829454772898492, "273": 0.027645233729115617, "274": -0.6343865437956063, "275": -0.24478260831322224, "276": -0.4587385975107973, "277": 0.006051099217040557, "278": -0.31784920789175464, "279": 0.016641636025012695, "280": 0.3396881229079584, "281": 0.12309994367922787, "282": 0.1052689386605422, "283": -0.17795026566918, "284": -0.28501128711155843, "285": -0.19434113945776377, "286": 0.34890544927049727, "287": 0.0324821048138883, "288": -0.1390158213335164, "289": -0.13755758887356473, "290": -0.18248370101969594, "291": 0.03278029715074948, "292": -0.21798531017159267, "293": 0.07218343520610207, "294": -0.14086970360298887, "295": -0.10064850717841464, "296": -0.15297769272233497, "297": -0.1632466110289777, "298": 0.045909005261503565, "299": 0.1703592653575166, "300": -0.12443425857498265, "301": -0.02900151304523229, "302": 0.43573926679757846, "303": -0.12778013596390408, "304": -0.13147495960455452, "305": -0.14027142926980687, "306": 0.3604389187208743, "307": 0.00002094950129734863, "308": 0.14032858287180927, "309": 0.06305653127975092, "310": -0.199620701653673, "311": -0.17089811598220908, "312": 0.06598354091736437, "313": -0.025678219605337813, "314": -0.12937393396090827, "315": 0.011577823625481612, "316": 0.316725237886638, "317": 0.07104556388613259, "318": -0.33988528253024686, "319": 0.018620895179470867, "320": -0.054029796168274094, "321": 0.02219358331971938, "322": -0.049895951630408115, "323": 0.20197101923520092, "324": 0.23703055217018187, "325": -0.010806275446803291, "326": 0.04713780932348029, "327": 0.21409072988177758, "328": -0.030919314924673844, "329": -0.1464177499047593, "330": 0.3049420769195975, "331": -0.12056944942160505, "332": 0.08498125846122286, "333": 0.24662347818444538, "334": 0.049920122263728495, "335": 0.11311478772802298, "336": -0.2484529919855433, "337": 0.3979742369110288, "338": -0.14652462371558608, "339": -0.008509738463357735, "340": -0.14871729855754892, "341": 0.005380032577236092, "342": -0.43772074053510424, "343": 0.16992195648914407, "344": 0.04546232831198616, "345": -0.13829430002057863, "346": -0.10544343560451809, "347": -0.010624903410640658, "348": -0.22545789087511559, "349": -0.05818292389948978, "350": -0.3019819152360582, "351": -0.08104952497841644, "352": -0.21610425097479266, "353": 0.08545948214797724, "354": -0.4139336485341089, "355": 0.18524492993125258, "356": -0.6909907644776379, "357": 0.19798468773158295, "358": -0.42521324806681865, "359": -0.020439523027036773, "360": 0.19628636080711073, "361": 0.16599589280091623, "362": -0.2635096271424877, "363": 0.21476957144300243, "364": -0.3715343656352398, "365": 0.006411425443692027, "366": -0.14179349374573924, "367": -0.2550361509505073, "368": 0.03357234263978525, "369": -0.0313139740413152, "370": -0.26753789512885323, "371": 0.21318983844656025, "372": -0.30047800047240814, "373": 0.01391484241811131, "374": -0.04945571912242919, "375": 0.024898523093185947, "376": -0.05694109257903423, "377": -0.16312937007617123, "378": 0.050476242382749885, "379": -0.12256531848915715, "380": -0.11094276034745469, "381": 0.027773131760244877, "382": 0.5484420542221313, "383": -0.04962346383567224, "384": 0.3259270203528724, "385": -0.0535608669499026, "386": 0.2064736914323342, "387": -0.08235868678190571, "388": 0.21028554300748362, "389": -0.05117920460151351, "390": 0.06937721787899337, "391": 0.07556509034876076, "392": -0.19710529744782204, "393": 0.00427888052749373, "394": 0.13205061108018343, "395": 0.04630923858806132, "396": 0.1491273587725912, "397": -0.13631980574160574, "398": -0.20289912784065472, "399": 0.15401909892067667 } }, { "sx": 5, "sy": 5, "depth": 16, "w": { "0": -0.004991215674358129, "1": 0.08558224782899687, "2": 0.24472331523775304, "3": -0.10036144955077571, "4": 0.33261766651293223, "5": 0.13407971978889124, "6": 0.1705355074422684, "7": -0.016533106000410552, "8": 0.0461033999400863, "9": 0.04696508968999518, "10": -0.04513235339693832, "11": 0.22298669935731288, "12": 0.004065788197996953, "13": -0.01588608727875639, "14": -0.1253171325365641, "15": 0.11978029569141067, "16": -0.24011960494128023, "17": -0.1627938619738112, "18": 0.2675284905055418, "19": 0.07465350703047367, "20": -0.032884183825796255, "21": 0.12753664514148, "22": -0.08533558166271468, "23": 0.16693349447971098, "24": -0.07558154532802483, "25": 0.20124409785829064, "26": -0.17512978722008077, "27": -0.021576946030196813, "28": 0.07299676910151943, "29": 0.06990323384540473, "30": -0.5265618649040109, "31": -0.1518509254161862, "32": -0.1319853381820753, "33": 0.2024818845668455, "34": -0.2566252004287489, "35": -0.28855631414601646, "36": -0.4905546157451839, "37": -0.004071512955943159, "38": 0.00424326269096375, "39": 0.1901434101520955, "40": 0.28598802658314315, "41": -0.01982297426096429, "42": 0.13508535104944167, "43": -0.39227600069948537, "44": -0.08453556861387566, "45": -0.09952423954625406, "46": -0.07094443187346204, "47": -0.06301181634406815, "48": -0.05658203716121052, "49": 0.3692860570867772, "50": -0.11155191319326613, "51": -0.15879740854540245, "52": -0.0745920168780906, "53": 0.14332322407722212, "54": 0.2268646424151668, "55": 0.1872070898320858, "56": -0.015223567362341808, "57": -0.11578445406255618, "58": 0.44069320082429936, "59": -0.18411683831645898, "60": 0.047493162346047044, "61": 0.09129976761012934, "62": 0.12435641219445874, "63": 0.18135788871848552, "64": 0.04091829777193171, "65": -0.0032375268874462446, "66": 0.4357794482071214, "67": 0.03082439667625412, "68": 0.23942301764302418, "69": 0.006469397372561186, "70": 0.08898255225064305, "71": 0.04569646745147433, "72": -0.062027597054890346, "73": 0.008062155870180866, "74": 0.060314900665095476, "75": 0.052411396070901714, "76": 0.044422545878081775, "77": 0.08080733329827232, "78": -0.03559466566399558, "79": 0.0915597063149595, "80": -0.030606732910136845, "81": 0.11270378777884171, "82": -0.18980430243327506, "83": -0.32022634960319085, "84": -0.18775367296785087, "85": 0.15396347048758505, "86": 0.121893426648807, "87": 0.05422427534952114, "88": 0.3129891586258093, "89": 0.15385572775289638, "90": -0.22377916570217538, "91": 0.2579457323633074, "92": -0.09148974050848875, "93": -0.019756896401035833, "94": 0.38578246992971743, "95": 0.018296933379280487, "96": -0.3116726945461428, "97": -0.12998672462174418, "98": -0.14402649962796915, "99": 0.04372713520324985, "100": 0.3035903880335425, "101": 0.44867671954823507, "102": -0.1449209987619735, "103": 0.04339525667064215, "104": -0.03602405216780172, "105": 0.10015967128520793, "106": -0.03536754214114349, "107": 0.2674144451822127, "108": 0.06999057369531085, "109": -0.27782282789319074, "110": -0.11212810566522302, "111": 0.053701217789310536, "112": -0.44693804375518564, "113": 0.003658599752201539, "114": -0.04414938895631695, "115": 0.468044810198538, "116": 0.02970194466799394, "117": 0.4461752223005982, "118": -0.31007846199976064, "119": 0.4195086655728921, "120": -0.04464546631599546, "121": -0.00469304775746333, "122": -0.09197723380528085, "123": 0.363060263069277, "124": -0.06690825280241641, "125": -0.14144987175257961, "126": -0.6263573046415812, "127": -0.4782225883564385, "128": -0.06256055801035351, "129": 0.1858008597947951, "130": -0.03135734259291955, "131": -0.07285602879605045, "132": -0.12231152352281881, "133": 0.18267068721217544, "134": -0.16927573642365995, "135": 0.18044044052571112, "136": 0.07120205239141998, "137": 0.032824556714517214, "138": 0.008704914241352777, "139": 0.12125541118778134, "140": -0.12613057365561542, "141": 0.03796425730557349, "142": 0.20644682117132201, "143": -0.2127748660519464, "144": -0.09364866771756747, "145": 0.04063721707942512, "146": 0.013244142190377034, "147": 0.00793580863557521, "148": -0.04554843968553394, "149": 0.13535034737056292, "150": -0.009704920337614853, "151": 0.10688451185030692, "152": -0.08966556607534543, "153": -0.08988286453309276, "154": -0.11399436816927096, "155": 0.056689768934470725, "156": 0.0378610394816514, "157": 0.18305793166794052, "158": -0.06761733040936466, "159": -0.08460864153047894, "160": 0.1280992431951724, "161": -0.021108431303771706, "162": -0.1791412774419275, "163": 0.11002679824653139, "164": 0.04298694607386703, "165": -0.3534503699657691, "166": 0.21630228128856682, "167": 0.2258386171928322, "168": -0.07880640901945868, "169": 0.1474262586092039, "170": 0.04647153367170775, "171": -0.1684166775649368, "172": -0.1620221435568381, "173": -0.27997595751866744, "174": -0.05396840247277174, "175": 0.2379951726445193, "176": -0.056055576833431715, "177": 0.015520332588875417, "178": -0.12810817914696754, "179": -0.08787842033678968, "180": -0.4553490633650344, "181": -0.5085465298344425, "182": -0.01367192428520163, "183": 0.3648519940507287, "184": 0.11751356069809164, "185": 0.11447417142579236, "186": -0.06290960193595412, "187": -0.06978360361470587, "188": -0.059747082108812, "189": -0.024186709128012136, "190": 0.6171801668760057, "191": 0.40454247167567436, "192": 0.018495643295157894, "193": -0.13997343408586943, "194": -0.0971585064091945, "195": 0.18642183928648606, "196": -0.015637769108926267, "197": -0.2869208933183721, "198": -0.05856665773780532, "199": 0.2330044256907769, "200": -0.22453666699355082, "201": -0.08824028040562368, "202": -0.2115432372025164, "203": -0.025524101734484023, "204": 0.13566265896848745, "205": 0.38954019412393903, "206": -0.045338509414943634, "207": -0.021052899228407886, "208": 0.18480370820671282, "209": 0.1562588326250009, "210": -0.11769474122881161, "211": 0.48829974704232304, "212": -0.2631188287866028, "213": -0.2154550138677576, "214": -0.10722589618823954, "215": -0.0035925705336618792, "216": 0.05206399725950175, "217": -0.06583136575525786, "218": -0.23134233679753144, "219": 0.05626673690263255, "220": 0.01102473207001412, "221": 0.32406093703239525, "222": 0.07868633132151337, "223": -0.4038992006875006, "224": 0.12503712748909768, "225": -0.10794950779349163, "226": -0.12697811700066408, "227": -0.010868999641082651, "228": -0.28982447193141647, "229": 0.01416418708188123, "230": -0.0591310585701444, "231": -0.2532080763112156, "232": 0.07579211331820382, "233": -0.08802513729508216, "234": -0.07839457991069698, "235": -0.0013619230256409804, "236": 0.051700503682216174, "237": -0.13705989980566696, "238": -0.012002089433156251, "239": -0.13602689697518303, "240": 0.11829986229462094, "241": -0.15686891611422188, "242": 0.14089306474007718, "243": -0.08871302924573786, "244": 0.2404643026855928, "245": -0.2897782055384472, "246": 0.06133521904470198, "247": -0.2717692585091011, "248": -0.0235593702078179, "249": -0.2526167231682419, "250": 0.08180656442333942, "251": -0.17754381116409326, "252": -0.10686193723243413, "253": 0.1430817749343735, "254": -0.09995049596956398, "255": 0.09157805339970244, "256": 0.09121305244532696, "257": -0.3572127992014814, "258": 0.057318598013217294, "259": -0.4154868101712648, "260": 0.0999793400324366, "261": -0.8564599581221242, "262": -0.0063582143553718735, "263": -0.5160505676734485, "264": 0.05321826474689816, "265": -0.3185327938945546, "266": 0.10341902639336444, "267": -0.24365951387585957, "268": -0.12491939174349732, "269": 0.03798987667790593, "270": -0.020000409206515208, "271": 0.17121667438220872, "272": 0.2760637905486846, "273": -0.3667617319056194, "274": 0.04607996697637232, "275": -0.5105169943248982, "276": -0.10580779224788434, "277": -0.66977973465788, "278": -0.041278670449875265, "279": -0.3292104411005063, "280": 0.20842576448135414, "281": -0.03413077318714344, "282": -0.08960738911332691, "283": -0.15312188326880177, "284": 0.05371032415875116, "285": -0.03227724869387914, "286": 0.08300140230332018, "287": 0.3041273060337601, "288": 0.20940316078437857, "289": -0.2989731454450331, "290": 0.02577604756564464, "291": -0.4279351644023511, "292": -0.11772051334130186, "293": -0.5049482100500472, "294": 0.16278145469545485, "295": -0.1575639375810705, "296": 0.0431019912635601, "297": -0.07981867489488276, "298": -0.01854166619251961, "299": -0.03560081989493999, "300": -0.03039254084264847, "301": -0.0462366768510571, "302": 0.01969724851622821, "303": 0.07077287230184184, "304": -0.029175713993811192, "305": -0.04017624378497897, "306": 0.042058864125810606, "307": -0.2527515004178521, "308": 0.1797036502612096, "309": -0.156962489033592, "310": 0.06686068560543622, "311": -0.058514063603043676, "312": 0.09613213656090693, "313": 0.01874233874778347, "314": -0.0829237966188905, "315": 0.04835841936101472, "316": -0.15786099487642166, "317": -0.19599677360915546, "318": 0.17073553359395272, "319": 0.0006433911875197515, "320": 0.225706041082021, "321": -0.1678255263894836, "322": 0.014737766967865107, "323": 0.00448556705702255, "324": -0.08546580994097142, "325": 0.39849420696432275, "326": 0.1511041660575492, "327": 0.19743429123287137, "328": -0.0029180663859667663, "329": -0.18211028879758207, "330": 0.19558382805812724, "331": -0.051924326939656956, "332": 0.13855941952420084, "333": 0.174451235338975, "334": 0.05122868477331968, "335": 0.14754062849406946, "336": 0.06675820030108409, "337": -0.27086050324231953, "338": -0.023109631998475166, "339": 0.06559279035830992, "340": -0.014558827612485595, "341": -0.30293562149552644, "342": 0.030954533724154052, "343": -0.20616252014159017, "344": 0.10561838202541027, "345": -0.2074167986376594, "346": 0.2072803096351848, "347": -0.249071912905762, "348": -0.24060142141132904, "349": 0.0984101280336732, "350": -0.12382865965180873, "351": 0.032251510331563385, "352": 0.07777782108218213, "353": -0.21928384716257532, "354": 0.14980897645816477, "355": -0.5419608816313959, "356": 0.10427729981142786, "357": -0.2582031516538832, "358": 0.1412807713066484, "359": -0.20514032981803673, "360": -0.024117285825414763, "361": -0.31435200804290814, "362": 0.08036653664314984, "363": -0.16123382523038707, "364": 0.06264672226745456, "365": 0.11504753194202645, "366": -0.20800420668976577, "367": 0.05017199512912702, "368": -0.07366578344240245, "369": -0.2016630623831076, "370": 0.09029933276929468, "371": -0.475449555582929, "372": 0.07645768040383179, "373": -0.05550790816362078, "374": 0.012305769019502179, "375": -0.26903907234170593, "376": -0.13774691046129944, "377": -0.2892856249592148, "378": -0.02775090718052507, "379": -0.209715372138268, "380": -0.015651751898666404, "381": 0.17975030489542526, "382": -0.11977193577597389, "383": 0.012524407325621417, "384": -0.026939720935792468, "385": -0.08267469906449865, "386": 0.1498764528820245, "387": -0.5461428018924218, "388": 0.19479340577626494, "389": 0.05388132870358741, "390": 0.06351763116973791, "391": -0.30485600584955425, "392": -0.04627356544182963, "393": -0.029826847147639862, "394": -0.06632372082155229, "395": 0.07858382419748229, "396": -0.11790430534982324, "397": 0.004388380348169642, "398": -0.09597001507243542, "399": 0.2349671632565232 } }, { "sx": 5, "sy": 5, "depth": 16, "w": { "0": 0.11352722969120091, "1": -0.0930683477205266, "2": 0.1934429387085734, "3": 0.09993999240358314, "4": 0.10588819772736169, "5": -0.2662835089702913, "6": 0.08927961595316468, "7": -0.010446732483673393, "8": -0.01832665168646156, "9": -0.24194935619240363, "10": -0.07275544399113693, "11": -0.18342235015473923, "12": 0.20449724974455677, "13": 0.5367094914337551, "14": 0.22241451608736548, "15": 0.08189117728944191, "16": 0.09884179520247442, "17": -0.36234795295304045, "18": 0.12185547357296829, "19": -0.13940078555919252, "20": 0.15200059541048055, "21": -0.42529909586268194, "22": 0.09088215944676675, "23": -0.11399473264647789, "24": -0.1836823281908194, "25": -0.3873454598225417, "26": -0.11970969107818993, "27": -0.10197255766873754, "28": 0.1602701264969205, "29": 0.520635805264708, "30": 0.27615090370108364, "31": 0.13278051908854155, "32": 0.23279423539024857, "33": 0.0017983813447339143, "34": 0.2025609313871341, "35": -0.3286043160926785, "36": 0.21353395378952067, "37": 0.05852057944168551, "38": 0.029491648859748646, "39": -0.04255325951757054, "40": 0.04919425215602366, "41": 0.021823777097716313, "42": 0.15216709942231452, "43": -0.1127322836703487, "44": 0.15299448057482581, "45": 0.009147022849068813, "46": -0.04408779332486371, "47": 0.2951355690653861, "48": 0.06186117434218473, "49": 0.05611558821887848, "50": 0.18279090711209572, "51": -0.2600129648287638, "52": 0.08620036506494372, "53": -0.18536168879221862, "54": -0.010531535488137603, "55": -0.040244994884859525, "56": -0.03338418087483083, "57": -0.20976888721979228, "58": 0.03976040223085128, "59": -0.21615368294132628, "60": 0.009484884776579106, "61": -0.25289614253234516, "62": -0.21840455532799954, "63": 0.20889448270739336, "64": 0.16057291624532102, "65": 0.10083732512723113, "66": 0.08417892195418186, "67": -0.001227424584934789, "68": -0.08657051790564388, "69": 0.05860408633778619, "70": 0.19209347343843514, "71": -0.04138353341361242, "72": 0.03272033942508141, "73": -0.06506095637976124, "74": -0.1280636101499787, "75": -0.1714373117465836, "76": 0.035061225418199816, "77": -0.08378567010705217, "78": 0.12334183337397175, "79": -0.1788042877636198, "80": 0.2852086024550204, "81": 0.2290336983921994, "82": 0.0884797456097443, "83": 0.007666340277595248, "84": 0.00730201410945854, "85": -0.2729380931574763, "86": -0.1052460763225709, "87": -0.35689540271774794, "88": -0.1964034476010544, "89": -0.25915126171466857, "90": -0.026675273679280877, "91": -0.0988473246598179, "92": 0.20801461058375914, "93": 0.31953203153993337, "94": -0.07007070846172993, "95": -0.3914294403472615, "96": -0.05004063914164811, "97": -0.27440448759066244, "98": 0.06805138770224556, "99": -0.13890645843601243, "100": 0.1140397570944308, "101": -0.4014122654965793, "102": -0.05884714742569196, "103": -0.19918553812056183, "104": -0.10978136263333138, "105": -0.31547990385787245, "106": 0.10321795725090178, "107": -0.28895614377285217, "108": 0.1967684598715514, "109": 0.21442954881108486, "110": -0.07519327099710424, "111": -0.3045397709341461, "112": 0.032099523393011566, "113": -0.021927401626134622, "114": 0.03588053158496855, "115": -0.16637504810989115, "116": 0.19241590311006873, "117": -0.20690360416921133, "118": 0.11464764662167555, "119": 0.01871920325041132, "120": 0.13711303264763824, "121": -0.023463593854674832, "122": 0.11010232291624888, "123": -0.19177087106369406, "124": 0.0804638700595605, "125": 0.05145005047994694, "126": 0.12592286945248365, "127": -0.10875294422448074, "128": -0.08708756745511195, "129": -0.19413100647703166, "130": -0.042864916600483124, "131": -0.3932839484887713, "132": 0.1047313019340067, "133": -0.33893462061497587, "134": 0.12604339701569942, "135": 0.07685874145646368, "136": -0.026298138531682256, "137": 0.15544362711084497, "138": 0.13803978825546245, "139": -0.39758186192313455, "140": -0.3105170157246481, "141": 0.026846534847392262, "142": -0.1789317871995602, "143": 0.1300142404166576, "144": -0.056381571802040044, "145": 0.11530121678143876, "146": -0.0706200942015152, "147": -0.11795759473875919, "148": -0.13563441115129457, "149": -0.23823015351702537, "150": 0.09050173354218563, "151": 0.24471781288857752, "152": 0.1745304631162963, "153": 0.0449705497658885, "154": -0.05941423783891153, "155": -0.38714553533018536, "156": -0.13410751295915851, "157": -0.28325064009307116, "158": 0.07320982079275239, "159": 0.10652323218292213, "160": 0.1436001456094828, "161": 0.45461020652158945, "162": -0.10442834070383786, "163": 0.0574663061562507, "164": -0.1469923155675442, "165": -0.0707360493939425, "166": 0.08544342405292922, "167": -0.3533004940333416, "168": -0.03362740930609031, "169": -0.07763740177594851, "170": -0.19650102198133076, "171": -0.013562629665835336, "172": 0.047225695210801895, "173": 0.06636147146653952, "174": -0.17086142641998223, "175": -0.19023671027869354, "176": -0.05567252902985424, "177": -0.14934313369033886, "178": -0.04365419743018925, "179": 0.39350844799964224, "180": -0.17847415616693613, "181": -0.07145325298911173, "182": -0.07783187403525202, "183": -0.2615308844359737, "184": -0.08047947859071397, "185": -0.27104337508521403, "186": -0.04685869766496482, "187": -0.1591493042771647, "188": 0.07857536994370999, "189": 0.113065727257247, "190": -0.07214488514737666, "191": 0.062088801985633685, "192": 0.1664180160175096, "193": 0.047767759309049106, "194": 0.029114640302238936, "195": 0.13996148682185466, "196": -0.07488432779182022, "197": -0.041212585779018394, "198": 0.010808877335080729, "199": 0.044692970114980954, "200": 0.2139446459156873, "201": 0.22292585403948884, "202": -0.005039565044779303, "203": -0.07237659643546027, "204": 0.0018451388903863708, "205": 0.0796904153329762, "206": -0.14038267395076834, "207": 0.5106342686492658, "208": -0.056756698092582956, "209": 0.019467843850813685, "210": 0.04241332230975374, "211": -0.11668408793062449, "212": -0.10367867030588032, "213": -0.18539317433397376, "214": 0.04648222214466623, "215": 0.05654498034818469, "216": 0.1690526333666011, "217": 0.1687337445958021, "218": 0.05774022816885383, "219": -0.030160412170424224, "220": -0.33131886728995796, "221": -0.04711412543641689, "222": -0.003411750869510401, "223": 0.1934944658530272, "224": 0.00265382614409707, "225": 0.12820128462506994, "226": -0.22034578543499408, "227": -0.09630523506223282, "228": -0.1450962930941688, "229": -0.08691785868532464, "230": -0.047575157775286106, "231": 0.11208010046125078, "232": -0.03373959603448152, "233": 0.40452773530571845, "234": -0.030562357931395848, "235": -0.046905736526285984, "236": -0.37558464088705223, "237": -0.2749397207343758, "238": 0.11511685140600876, "239": 0.07940459507420224, "240": -0.2275920782078656, "241": 0.22659224865080024, "242": -0.23917443785755246, "243": 0.13527689899805365, "244": -0.13584360392486944, "245": -0.014914953507285958, "246": -0.25223173837528945, "247": -0.11164177564018642, "248": -0.09945062685122495, "249": 0.05448377926464142, "250": -0.22762679893974821, "251": 0.355965539763269, "252": 0.07678524580507617, "253": -0.04377984487666792, "254": -0.09074373077548492, "255": -0.036850399860809166, "256": -0.2026445777220115, "257": -0.2929916953901172, "258": -0.31075228719259335, "259": 0.2402398074094288, "260": -0.3046415981293924, "261": -0.0867396056679589, "262": -0.15582357717637452, "263": -0.062317702798332535, "264": -0.28224633935871013, "265": -0.2064361632721377, "266": -0.18049110214788364, "267": 0.2506337500203843, "268": -0.27581947250071215, "269": 0.1111537597640259, "270": 0.15408661848305316, "271": 0.06226969444297636, "272": -0.0980837880224429, "273": 0.05450459345020446, "274": -0.10286540830346354, "275": -0.035186043735862774, "276": -0.20937383240973745, "277": -0.07182135440621558, "278": 0.01909415889407589, "279": 0.17451640246652228, "280": -0.391000399115687, "281": 0.26825075118395736, "282": -0.2579587736199357, "283": 0.2944345106966831, "284": -0.4504180808722735, "285": -0.051125325578331375, "286": 0.08017170683386961, "287": 0.07736171705890381, "288": -0.09363517160884294, "289": -0.03100850448187018, "290": -0.05695943275844509, "291": 0.2805888550626655, "292": -0.28966861795139603, "293": -0.07319483075556546, "294": -0.07943984119432426, "295": -0.025608449553686085, "296": -0.35893807282980683, "297": 0.14896150597390062, "298": -0.2079491754948082, "299": 0.10815596883823075, "300": -0.34172822918434265, "301": -0.305453297266957, "302": -0.009266393401886735, "303": -0.17174479354258634, "304": -0.054371332985785815, "305": 0.054724141453331085, "306": -0.12234791634668504, "307": 0.0023407121924693785, "308": -0.15829625973827902, "309": 0.013256737748427802, "310": -0.17635669801516213, "311": -0.0408382906990655, "312": -0.3264491371374116, "313": 0.34609803420711993, "314": -0.1667482953754784, "315": 0.24996348463651713, "316": -0.24242033738092375, "317": -0.053678004913080155, "318": -0.019576088708364064, "319": -0.19326359979066404, "320": -0.3473906417760757, "321": 0.13620893630832104, "322": -0.2760973306747559, "323": 0.2393485802205422, "324": -0.17041752931024248, "325": 0.16073766882270396, "326": -0.08166946851706054, "327": 0.026857264674673278, "328": 0.017459616252453285, "329": 0.14869683246927015, "330": 0.007000843617319384, "331": 0.3101946495593161, "332": -0.29270919051463457, "333": -0.16541250731282428, "334": 0.05262010477646195, "335": -0.1542590291594931, "336": -0.15708224369039794, "337": -0.1364166394846864, "338": -0.2521748321386118, "339": 0.03321813265917101, "340": -0.28412204957927656, "341": 0.14017045069148099, "342": 0.055299386441152946, "343": 0.132833133662939, "344": -0.18058761886212193, "345": -0.16828812814112054, "346": 0.11668513143998474, "347": 0.3789935150989524, "348": 0.017738428356130757, "349": 0.47125426263903303, "350": -0.019842396616158612, "351": 0.17920921987138722, "352": -0.16600828840521903, "353": -0.02853079526423062, "354": -0.1724020899428523, "355": 0.004471189765385376, "356": -0.14942983831172782, "357": 0.09236537613951429, "358": -0.031871649801448854, "359": 0.15252472379041604, "360": -0.15295848891065342, "361": 0.049080134695028275, "362": 0.02682656176020439, "363": 0.2882527166065493, "364": -0.14112426725167812, "365": 0.12053602472000093, "366": -0.1391029700056351, "367": 0.12276220563487719, "368": -0.1736592462794302, "369": -0.028621159898052702, "370": -0.058887058362787265, "371": 0.13970720822070287, "372": -0.17051006833332186, "373": 0.15783635287337433, "374": -0.08875531039008992, "375": 0.05893383175576703, "376": -0.06059421682785244, "377": -0.028238567163484062, "378": -0.04180355380859883, "379": 0.14242457018578356, "380": -0.13875578179083953, "381": -0.35990126699195224, "382": -0.1490356930324638, "383": 0.0937184023100876, "384": -0.09659260732522229, "385": 0.10640263658630378, "386": 0.022255056916282864, "387": 0.23623834659445947, "388": 0.14221381889052503, "389": -0.020603054287621304, "390": -0.13778057840888375, "391": 0.14411837411186054, "392": 0.018014916465505026, "393": 0.07404770787222982, "394": -0.05079714230865715, "395": 0.06107087351961954, "396": -0.4294432438100343, "397": -0.20268104921710733, "398": -0.07669958171703564, "399": -0.22578726126290066 } }, { "sx": 5, "sy": 5, "depth": 16, "w": { "0": 0.17685017232722203, "1": 0.15074724944180182, "2": 0.1870172912873681, "3": 0.05071952155798883, "4": -0.19136385458434527, "5": -0.19321854333414118, "6": 0.17802643707489296, "7": -0.09206508855288378, "8": 0.012211803189198088, "9": -0.18732317037697677, "10": 0.3207404050224174, "11": 0.21393788578340056, "12": 0.024683643407798182, "13": -0.14001293028002304, "14": 0.16928460485726185, "15": -0.37170467217349334, "16": -0.2978445549169634, "17": 0.03790754350520373, "18": -0.10178885836892376, "19": 0.35552569721057187, "20": -0.2678196889877059, "21": -0.18874249390100878, "22": -0.1197289972452504, "23": 0.0760728794247665, "24": -0.043750436440649736, "25": 0.15308328372506128, "26": -0.052796085288947914, "27": -0.16494789946782146, "28": -0.412989151701926, "29": -0.04620497506270997, "30": -0.09416953537737925, "31": 0.08449359395451714, "32": -0.0740973647514105, "33": -0.024640092322412113, "34": 0.008417159408001482, "35": 0.08574274347983064, "36": -0.1596806182625047, "37": -0.12833723329277763, "38": -0.3489033358065311, "39": 0.18363317063647086, "40": 0.24202206422504513, "41": 0.15976753364633148, "42": -0.39576224561800544, "43": -0.15117250193468143, "44": -0.12720723842580633, "45": 0.04446307709081193, "46": 0.2925461754469931, "47": 0.1536489711216624, "48": 0.13806636999358646, "49": 0.2691955991126035, "50": 0.06015275708286059, "51": -0.09864713103437188, "52": 0.15349506619900952, "53": 0.046162783028964975, "54": -0.04556174422028259, "55": 0.05258035948420501, "56": -0.09926211172061859, "57": 0.02166869158851968, "58": -0.0037412822786523194, "59": 0.1422090708561833, "60": 0.14843276125982, "61": 0.3690575133223224, "62": -0.15526306021351474, "63": -0.1773002471541614, "64": 0.22032349967590473, "65": -0.001621513484468982, "66": 0.13998489272725725, "67": -0.07297583667980224, "68": 0.3029101200745408, "69": 0.12454496394483282, "70": 0.10248220838462478, "71": 0.07060943343046619, "72": -0.028222521271496097, "73": 0.31499483029071973, "74": 0.11923317829373771, "75": -0.19638937298465875, "76": 0.1799985581839615, "77": 0.3354531994570112, "78": -0.13199498133289433, "79": -0.036706684302091924, "80": 0.03669912998684645, "81": 0.18664837861041772, "82": -0.0034219109998214095, "83": 0.11007370190075462, "84": -0.21927387027117018, "85": -0.09604991088241481, "86": 0.27721868981848397, "87": -0.18202760847832947, "88": -0.06520117392490841, "89": -0.2361186845430141, "90": 0.2075115137956921, "91": 0.10322125252093707, "92": -0.26643798483698317, "93": -0.09822465293983809, "94": 0.2676546846863683, "95": -0.4111068850956917, "96": -0.08831557131983547, "97": -0.00500651863761036, "98": -0.16832124611264246, "99": 0.3744082857017455, "100": -0.3342668761689127, "101": 0.01891398191943434, "102": -0.05441559853029808, "103": -0.17195032109645136, "104": -0.2292794467310915, "105": -0.034206253690434806, "106": 0.11706450796646213, "107": -0.18829594652068501, "108": -0.66910827983841, "109": -0.3835075706820602, "110": -0.08152722155451614, "111": -0.28659299037569247, "112": -0.17004808876086844, "113": -0.10121256458126944, "114": -0.21237305534174516, "115": 0.15466914856391004, "116": -0.41552576351191484, "117": -0.07171614708877554, "118": -0.1128156575156123, "119": -0.17485894362652066, "120": 0.13428008132586913, "121": 0.12194277631771247, "122": -0.2817616459072921, "123": -0.13553928195995177, "124": -0.46177926235625205, "125": -0.5189001593162638, "126": -0.26359916683153545, "127": 0.2150622227102978, "128": -0.05350281905158014, "129": 0.010624120405049592, "130": -0.11963243710457437, "131": -0.17367712549866895, "132": -0.26293230656702427, "133": -0.12737736570730002, "134": 0.0571198925078425, "135": 0.11279118921487943, "136": 0.2433208830566272, "137": 0.04866342471860264, "138": -0.04235944104839828, "139": 0.04579117732836388, "140": -0.10233482093200455, "141": -0.23532974925071512, "142": 0.1411544100526451, "143": 0.21293688429874197, "144": 0.23105242586548838, "145": -0.13444624473652228, "146": 0.006657957896256775, "147": -0.17179314308885937, "148": 0.024190088692249704, "149": -0.2506147572446146, "150": 0.07376601757032934, "151": 0.023142946477628136, "152": 0.1099453999743952, "153": -0.06511331192369892, "154": 0.3118711436476322, "155": -0.027651163751434494, "156": 0.07314502994254059, "157": 0.3367616897771694, "158": -0.26117091061463615, "159": 0.10116325035190074, "160": 0.0015694846498481255, "161": 0.03832926498243997, "162": 0.10538199685354178, "163": -0.027217727223095355, "164": 0.07428219487258528, "165": -0.003242723760033034, "166": 0.17777429618895974, "167": -0.09029509327969137, "168": -0.031118773389059988, "169": 0.010071816471920979, "170": 0.09045591909981766, "171": 0.1615083451610653, "172": -0.17315273912327458, "173": 0.3935015767696079, "174": 0.4071936046670925, "175": -0.1205689192649176, "176": 0.0006100562505731047, "177": 0.14708910699894565, "178": 0.06908389248995271, "179": 0.24677174505853597, "180": -0.3621145013043458, "181": -0.027731173581706934, "182": -0.2850586937395229, "183": -0.09096969841279683, "184": -0.10434006860720808, "185": -0.2091446692949642, "186": 0.1411309186794298, "187": -0.11180443994631108, "188": -0.44695515015754517, "189": -0.3828480265685465, "190": 0.24283499119337384, "191": -0.4200281100272174, "192": 0.10437708611774511, "193": -0.06505508420627716, "194": 0.018440733385098954, "195": 0.1593773267377973, "196": -0.4138752108532363, "197": -0.08552121796221995, "198": -0.13792730089780342, "199": -0.3376805256818144, "200": -0.17671120597733236, "201": 0.13127075359236723, "202": -0.2577646258634387, "203": -0.17757948760085634, "204": -0.4606832450639954, "205": -0.5450248904834475, "206": -0.3113566553553288, "207": -0.05854762650644562, "208": -0.041609872733945105, "209": -0.1750115828232555, "210": -0.16069817044354348, "211": 0.07152253412345842, "212": -0.45037177768366293, "213": -0.0051691999962171775, "214": -0.16905834685996338, "215": -0.1996776905624434, "216": 0.10653351895765019, "217": 0.17092005543783967, "218": -0.15351029801677296, "219": -0.049267365460741896, "220": -0.181365286302689, "221": -0.34338323179075325, "222": -0.06990543860661064, "223": 0.3891606343312521, "224": 0.19695189825086826, "225": -0.26193628970171023, "226": 0.015074984868898819, "227": -0.2583850252926326, "228": -0.24575742565908174, "229": -0.02934106431834447, "230": -0.05447044684486404, "231": 0.12600530816246025, "232": 0.1694152694990924, "233": 0.06835515518757841, "234": 0.05541153937234189, "235": 0.014967176903255401, "236": 0.06932494772999497, "237": 0.019833750899557218, "238": 0.0383083125113191, "239": 0.10789324411223772, "240": 0.026314821480017583, "241": 0.00697598448535157, "242": -0.08358506079043555, "243": -0.06227829683054973, "244": 0.15318076823716137, "245": 0.05539752466187485, "246": -0.04262268060559258, "247": -0.08813808169386342, "248": 0.16497290563889763, "249": -0.07068885121379055, "250": -0.07942558576820308, "251": 0.2670632735572933, "252": -0.10575350220371518, "253": 0.1133646591954791, "254": 0.09967503204584856, "255": -0.15766347728325178, "256": -0.17898227524720273, "257": 0.10835907442211898, "258": -0.06506487638185493, "259": -0.006427869760802247, "260": -0.3279315385658557, "261": -0.07237194565796647, "262": -0.25427589282241825, "263": -0.009024841475344218, "264": -0.021988713969153438, "265": -0.021979850761142, "266": 0.06011883181835262, "267": -0.2222751832771615, "268": -0.2744576609711724, "269": -0.2821880608681257, "270": 0.026011911223495426, "271": -0.1845855252817261, "272": 0.01448780956527434, "273": -0.0413491311910421, "274": 0.01954665792522011, "275": 0.015858552757719222, "276": -0.3504593408649122, "277": -0.053311698660712996, "278": 0.028992447396225366, "279": 0.04506115315534731, "280": -0.12735942669816414, "281": -0.1952821892996992, "282": -0.14664648363566907, "283": -0.09777344007721205, "284": -0.3460707102413291, "285": -0.4236478183763262, "286": -0.2768861188302957, "287": -0.23773806124022742, "288": -0.07633826510313574, "289": -0.00869024049491637, "290": 0.048152668175333556, "291": 0.11859395851985216, "292": -0.3550119210355522, "293": -0.02668891847075085, "294": -0.188114349359671, "295": -0.1780185888615657, "296": -0.11567029767498263, "297": 0.021695754620524057, "298": -0.18092906488931, "299": 0.06632037412177376, "300": -0.21296088900939764, "301": -0.2846098857867989, "302": -0.23045084536156815, "303": -0.14687732516908095, "304": 0.0018113604690620257, "305": -0.175633819527029, "306": -0.01839338068266156, "307": -0.1787305723896622, "308": -0.12691876589351056, "309": -0.08515119829713114, "310": -0.1114980927653122, "311": -0.026509163702675313, "312": 0.11262194995298258, "313": -0.08822208185184326, "314": -0.21134989828767084, "315": 0.2167080349070602, "316": 0.0907687510316985, "317": 0.07212580207705449, "318": 0.10503658975121072, "319": -0.09365792356151222, "320": 0.12365730672209216, "321": 0.15663445670886364, "322": 0.16992735991948435, "323": -0.1266498026095918, "324": 